avr:[-0.17056129238358614, 0.07068139375052755, -0.17134359658404347, 0.0753998689659885, 0.1119394313363145, -0.009158874257143028, -0.050293712836886675, -0.0265183059150556, -0.03283037963709723, 0.01783970516949174, -0.12603152640264167, -0.0905351216278228, -0.10354336489990942, 0.013599196754891059, 0.05798442368181343, 0.12937027115581207, -0.21001236172206617, 0.024016268106221966, -0.21309457910861973, 0.14475166857080216, 0.0399914928247522, 0.004196705235937871, -0.045807702376820456, -0.011317793215240245, -0.02377751158363041, 0.03829845235083782, -0.1445888822249155, -0.05834969719488805, -0.0017978069577835188, -0.011651408109295252, -0.01812255947869918, 0.1837038623744542]
alphaev56:[-0.017700508142963152, 0.13538225550519056, -0.3652349812277628, 0.03596250210395342, -0.0169735139860637, -0.05031417484346543, 0.007452764957804836, -0.004160946286485671, -0.09385074751918537, -0.03275871541517233, 0.16185370481951716, -0.13162403216270016, -0.08052163058655842, -0.01642041899247603, -0.13646527130289443, -0.1770236305893296, 0.028138329412744592, 0.22711568861724274, -0.386640612472686, 0.048403249290086166, -0.0401410899227041, -0.044453671694770845, -0.01972154355143139, -0.021876903448724255, -0.01014272088858667, 0.018423695670177306, 0.21962681861060643, -0.1534536607528924, -0.0635994319677786, 0.00390683801873204, -0.2646383510665931, -0.3236202799505413]
arm:[0.049361378722907925, 0.034900274215020254, -0.027539697758210205, -0.026358588427435825, 0.16303877439002737, -0.04583201340475428, -0.03196506347673039, -0.007197074768661948, -0.07190764009415, 0.052483597309786065, -0.08789463243728822, 0.10347161362175483, -0.14440632352546068, -0.1467272958830954, -0.061177707899464154, -0.07756351252743263, 0.053111042587676446, 0.022098745104536528, -0.031371963832159414, -0.020034757553607282, 0.2686454921387744, -0.06862411436594962, -0.04495865752744598, 0.04762312896888091, -0.08221326546217403, 0.07068031758075825, -0.06254887139311026, 0.07634705445265337, -0.24166645750911203, -0.20109369147690392, -0.05654594584303001, -0.05399353429911915]
m68k:[-0.0925547774999218, -0.015121812493952523, -0.061068695989568725, -0.1708828612149511, 0.09333372511872155, 0.016698514071248317, -0.003372471653468465, -0.16951269451147388, 0.030885196297152175, -0.11007556283280219, 0.05237372303208328, -0.1015404732710002, 0.014243964032483476, 0.05784209824269957, -0.005389580936601786, -0.0013246137685842222, -0.05550016508740948, -0.08259932445736769, -0.06948209569911101, -0.21026664139571233, 0.13128317436558462, 0.01297295094925824, -0.009335818760448492, -0.18165022208109563, 0.05103810858767424, -0.05045333917261566, 0.05234563148835176, -0.1070064237345421, 0.030279923311111973, 0.058669782355281336, -0.024059144168807785, -0.011098029986515023]
mips:[0.020055398542558268, 0.018530424470225786, 0.049694147043984276, -0.0726015489507926, -0.08340056194466901, -0.004870321279810828, -0.01701384122604204, -0.007086323808915339, -0.000928835851849369, 0.0410747509601698, -0.0029035878948956984, -0.04730857766555663, -0.11016774849285554, -0.17153895598717522, 0.021540383525327382, -0.16520896363770018, 0.050596717434586956, -0.045646115187033556, 0.09553716734659963, -0.05107273604131215, -0.1259463022959199, 0.03113426402444413, -0.008818311828055021, 0.044680490201662384, -0.014909922287692716, 0.01783906743168737, 0.005051968379426312, -0.11386395336088283, -0.08515950354329245, -0.06908107061698696, -0.008624128624941725, -0.25572761211144557]
mipsel:[-0.006711435634823993, -0.11512103826488042, 0.023544371571657587, -0.03871218142599996, -0.1616087132485946, 0.023740163646731455, -0.012165139906382228, -0.07683755497956288, 0.009870174921635973, 0.028511886844344136, 0.024243390467263058, -0.10991204692461061, -0.10922175910996647, -0.0678887436327083, 0.008621447038757625, -0.16654886335404886, 0.038739166240807046, -0.0720130081113709, 0.0361433987526837, -0.0061303500607818775, -0.12533257745447854, 0.00822041910888295, -0.003810524927154313, -0.0339401382790141, 0.03954132059872763, 0.010038102022922398, -0.006341450319105755, -0.10373413243252422, -0.1424400262598096, -0.155247125953933, 0.020306457615672516, -0.2504880723704454]
powerpc:[0.09427665922384158, -0.195141356068813, -0.16027660114476153, 0.0990780893982803, -0.02089199420220025, -0.02180000789451605, -0.03187056674162563, -0.0035444050030067776, -0.13684835241313603, -0.0004472116855192395, 0.05017879494180236, -0.1572823854918189, -0.0362504978188291, 0.03900325949732904, 0.005619251885463628, 0.09208758100072184, 0.023122966422381114, -0.267118647920808, 0.01412038060267781, 0.048761956804858946, -0.03136269411499969, 0.0061505789229438475, -0.013396488882494449, 0.012126592975571955, -0.15941082756323974, -0.012806169272605306, 0.06320669300282405, -0.21390823804358322, 0.05860988817239388, 0.06426798483461851, 0.052583799012568225, -0.026784547354512314]
s390:[0.11601602112591264, 0.04983050655913513, 0.06896722120286608, 0.16399909982116767, -0.06356898413206956, -0.07216614633818656, -0.019865073576175715, 0.04136608733586414, -0.0806904804254033, -0.1977734498378488, -0.08417783462618232, 0.10983659844480477, -0.06368677884690985, 0.024494875489033514, 0.008168596023598077, -0.3825583829380116, 0.06847738870902524, -0.20614813916837393, 0.061089928010995526, 0.2559698390672941, -0.07905845997734198, -0.047477755366647084, -0.01357484504437483, 0.024802066303779718, -0.1259085206039828, -0.20275793617244248, -0.15201979187650538, 0.13194767450803999, -0.07504360568291848, 0.1275791142696943, 0.01815805824862682, -0.16632468920765447]
sh4:[-0.12659091633568403, 0.08724157067970115, -0.14596379090292366, 0.10018620768251346, -0.05430976376015894, 0.004116902257259775, -0.07811174909438824, 0.08710814711216458, 0.049406575930690075, 0.0071138050327190375, -0.0928405061778778, -0.021970303678150036, 0.17257683329142035, -0.05782524583086187, -0.13141396524471893, -0.03856807719787788, -0.17257975770489012, 0.006551742978597713, -0.0953369693461424, 0.0942980197577081, 0.027837640681413395, -0.013286464238081087, -0.01958000442360166, 0.06037101081031752, -0.00870536571711292, -0.03479479475839185, -0.03849522253382592, -0.004203390385234193, 0.1709135272775044, -0.04580802566866397, -0.08553127988711007, -0.08103144841809688]
sparc:[0.039768253311236575, -0.0016759887809805758, -0.03413934768812711, -0.3214539339040141, -0.0611317850705164, -0.006090661209328875, -0.017252305081188683, -0.012350988336913409, -0.055480034714894454, -0.17653467085322633, -0.12056311119623697, -0.1801689621423285, 0.12593943903904337, -0.07619783732630257, 0.07009113516519407, -0.2981179358417985, 0.030136373422212162, -0.10979600150738598, -0.09302177947356798, -0.45303472725090954, -0.08563983950614606, -0.007152470283800419, 0.0028785973185882583, 0.05947273099860663, 0.046519452818259956, -0.2376261865114295, -0.06073707671862476, -0.2718381129050067, 0.18569744627680404, -0.05107257909547211, 0.08073103456377168, -0.162043602489398]
x86_64:[-0.46642468148798455, 0.14301782023963022, 0.058575551737490586, -0.02834034778062834, -0.05189731697639192, 0.005379614634770788, 0.008489649786977591, -0.026443919024930262, -0.29220136477589914, -0.07162545909930226, -0.026891805106744656, 0.051709993081700545, 0.01590147661057755, 0.08683576050044436, 0.00046151351399186414, -0.13920579232730218, -0.5147441242580091, 0.19698729441922203, -0.017452282011069457, 0.023697123528685592, -0.07437530181437704, 0.004974436027870512, 0.0012555795513895394, -0.0928431585125959, -0.3258808056275802, -0.03071795612155229, -0.038832335254675096, 0.11568685195526121, 0.004998135248935492, 0.025737684503984913, 0.09116167126147116, -0.10359232949069061]
xtensa:[0.03395460952757784, 0.1062867683850899, 0.10121853979301175, 0.023568928645988044, -0.30883010538468053, -0.12486507736032659, -0.017209156771751364, -0.06777754918571523, 0.024626972414970593, -0.05832680983206066, -0.10822501017237642, -0.08878932382068759, -0.12373106715040431, 0.0943836309746289, 0.02384804257741902, 0.025331559796204033, 0.01565372915181178, 0.07062370888202409, 0.09336021137146792, 0.12783686337905462, -0.31482133199213497, -0.17418850585794962, -0.008390657469641308, -0.04754277921679031, 0.01772821967624911, -0.12344754020014792, -0.09528396279982392, -0.07098646725207026, -0.13065681642751076, 0.11261899859068644, 0.015548202590210482, 0.047849958400100354]
avr:[-0.1699953348891668, 0.07001564287353572, -0.1711706657158081, 0.07629503402402824, 0.11236269663997345, -0.009127185812094086, -0.050062801201555956, -0.024501208860671187, -0.032291725114206166, 0.019430140385702625, -0.12615925876765632, -0.0906011780873353, -0.10310079590982635, 0.014630553332255469, 0.05762347496241094, 0.12942931602319088, -0.21009400075704404, 0.023952731388878573, -0.21349481870227738, 0.14536446227154382, 0.03949886524725452, 0.004234661470381012, -0.04418388269595804, -0.01023243830466605, -0.023765339390615342, 0.0396524230573003, -0.1447727518411936, -0.058232466405964925, -0.0012707524972141648, -0.010680872164409171, -0.018119060786091948, 0.18333426612408352]
alphaev56:[-0.01790232889700496, 0.13511019735484678, -0.3654340421289629, 0.035993110144415405, -0.016846813091093944, -0.04974214216731516, 0.007425878214240033, -0.004208220155999072, -0.09381744042421676, -0.03228222661323812, 0.16190321764170898, -0.13190581646474941, -0.08028615376413002, -0.016443782920850147, -0.1364689555993511, -0.17704615011206137, 0.027998612458152102, 0.22710569000329128, -0.3868363736793516, 0.04824331217223465, -0.04027393331244447, -0.044592035031488626, -0.019792004496497536, -0.02198369248816033, -0.010344518556592948, 0.01804901362449145, 0.219941743571987, -0.15306822794820413, -0.06312807187521777, 0.003900499634304393, -0.2645686378781163, -0.32367958801855373]
arm:[0.04920060998444091, 0.03488639699467668, -0.02750176786321923, -0.026200706221504434, 0.16297358165268863, -0.04586549791280009, -0.031872991957386625, -0.0072814414488821255, -0.07189665661174251, 0.05241355359366115, -0.0876605177081419, 0.10351638371521182, -0.14417802664186363, -0.1464414442236529, -0.061258916487902076, -0.0776765024624773, 0.053004407453663846, 0.022218156555446397, -0.03126173053091842, -0.020015466324099295, 0.2686836159317539, -0.06848933014527203, -0.04500122413093503, 0.04752129670519211, -0.08226641615892419, 0.07066389448050855, -0.06259684824045492, 0.07647597391764005, -0.2415876902515839, -0.20100231087761433, -0.056617333240114504, -0.054230480056941366]
m68k:[-0.09173947625298198, -0.01513962312125886, -0.060442303892933445, -0.17099590096867573, 0.09169621336157677, 0.016196001249202882, -0.005317399846882797, -0.16884000071505637, 0.03056306591627741, -0.11056410987732856, 0.0525151842383554, -0.10152828802727919, 0.013857079853324749, 0.05825325999116115, -0.004885457377004911, -0.0003851320917931778, -0.05578246057112311, -0.08288436182667659, -0.0706961572547742, -0.21018420738393856, 0.1301766377919453, 0.014448655614825728, -0.010275998363858892, -0.18234557700903603, 0.052014282052967806, -0.05139623423763627, 0.05345999860746318, -0.10698135343733906, 0.030288630258541317, 0.05812811776396879, -0.02547074960193907, -0.009522906847542619]
mips:[0.020169784289456105, 0.018761192014098718, 0.048996934278049575, -0.0726777703652912, -0.0840267803691994, -0.004629199411714483, -0.0167015097360775, -0.006881269786528643, -0.0010489126262133532, 0.0406831857163922, -0.003421968033118729, -0.04790515634680426, -0.10969617810020367, -0.17177821079079078, 0.021517311677930553, -0.16511676360724914, 0.049635089341329736, -0.04647361321492719, 0.09521425667684924, -0.050210054026556955, -0.12586226378628348, 0.030901319607603308, -0.008426798468430653, 0.04359015096775701, -0.013327343012271413, 0.017194288056328447, 0.003302264305709305, -0.1136067420878983, -0.08577382302475964, -0.06870888920770438, -0.008075644251266858, -0.25659330197996305]
mipsel:[-0.006907745163522718, -0.11451340343744765, 0.023231071062181145, -0.03857685224448557, -0.16164307434432607, 0.022753721843336686, -0.011531420835986378, -0.07707694295352165, 0.009182028408986156, 0.027722414705327665, 0.024633693625699213, -0.10989503401576471, -0.10926336425950348, -0.06779193700248422, 0.008541785994313806, -0.16600574764000706, 0.03859224961418915, -0.07158228194711977, 0.03629175613355382, -0.005725975209135488, -0.12457230409151737, 0.008889397521793234, -0.00393892135576961, -0.03346913097366916, 0.03951328974782376, 0.009579740030975347, -0.005513631127579379, -0.10287321288410758, -0.14257133640017852, -0.15529597757002525, 0.019990527380224478, -0.25051948908005117]
powerpc:[0.09364524692879912, -0.1950693802721609, -0.1606102770003615, 0.10021433318413557, -0.021279707688257838, -0.02184271560351454, -0.031797359048046626, -0.0031573440236726882, -0.13709868498268504, -0.0008960938417953702, 0.05093839717352408, -0.15706733936555595, -0.0361776134800321, 0.038720938023259016, 0.004878947926874995, 0.09174642285765623, 0.02316030742397854, -0.2670482273343371, 0.013657082248535676, 0.048203284818924316, -0.031541821780555694, 0.006567275515115593, -0.013329402402802676, 0.012208020874146462, -0.15977079980919465, -0.014014713008548068, 0.062437561265253516, -0.21368097115361337, 0.05825049674418684, 0.06363414614591546, 0.05202798190807716, -0.027020385745777184]
s390:[0.1159535416561068, 0.050143794616331214, 0.06873385282080442, 0.1637726890715885, -0.063526648371941, -0.0723455434793902, -0.019139952013493437, 0.041526513115138816, -0.08095924121463816, -0.1978556936432372, -0.08400642527798546, 0.10967365592022749, -0.06299822470284268, 0.025056795438462363, 0.006763424560412959, -0.3831490675726466, 0.06836719556079549, -0.20617665568391091, 0.06101075712488975, 0.2549256239503958, -0.07908901943170583, -0.046775604322878694, -0.013989233973542105, 0.02408614440394133, -0.12685558274588568, -0.20246578383968353, -0.1514892366022521, 0.13123421293502788, -0.07491328111141334, 0.12767913984308155, 0.01742430633171678, -0.16602357894838143]
sh4:[-0.12684307512589496, 0.08747114800587179, -0.14574121899527898, 0.10005722365728958, -0.054384780519117305, 0.004200052662949937, -0.0783002365135946, 0.08720925678711422, 0.04941169182085159, 0.007009532734421208, -0.0927380766140978, -0.02203475960375414, 0.17253451334939607, -0.05777661982448867, -0.13141125675062704, -0.038556728801703834, -0.17241246925619197, 0.006511049559694301, -0.09541988971421073, 0.09445081367170993, 0.02763816125993589, -0.012926830962348658, -0.01959590615332766, 0.06032005816659252, -0.008549078286697235, -0.03459601643377853, -0.038490533831175476, -0.004103193593442649, 0.17072824122341101, -0.045813514017463725, -0.08540897098575342, -0.08106013884693676]
sparc:[0.039991737561522835, -0.0014443626863850248, -0.03524933031524373, -0.3215093653939899, -0.060433032241891685, -0.007493764044873632, -0.01883259240344085, -0.013161683076643749, -0.053668693957886315, -0.1772560836674131, -0.12064007513416078, -0.17971543417993824, 0.12798080727024116, -0.07613435769503477, 0.07040734493732996, -0.29717733742937524, 0.031128591166917713, -0.10906209618538511, -0.09387255134427851, -0.4525315704885156, -0.0860838548401769, -0.0056448172432129965, 0.004145186967274839, 0.05935687081730815, 0.04470765215246903, -0.23707739403174394, -0.06036911906173645, -0.27172611434852567, 0.18640551448922135, -0.050181680439458316, 0.081241210647693, -0.16251394761130036]
x86_64:[-0.4669356485714128, 0.1439130167584591, 0.05750542383816977, -0.028068648419433944, -0.05209440069242349, 0.004764319887519888, 0.007671469211883483, -0.025872184059870608, -0.29213223025755475, -0.06994827754322883, -0.02618086751674505, 0.050380878848114895, 0.015785959389098693, 0.08581973814148348, 0.0002416173479883956, -0.1384362063445875, -0.515242011338139, 0.19798387218872007, -0.01787186609577327, 0.02412820358085223, -0.07310410526720951, 0.003469102593317641, 0.0017986324083988298, -0.09214484046718331, -0.32591405837051574, -0.030588795696211337, -0.03947923131042863, 0.11464520968151208, 0.004888981891526275, 0.02579921853554162, 0.0912376354765101, -0.10335227787620568]
xtensa:[0.03261703456619196, 0.10576423727154548, 0.10260946633360583, 0.02366534607079033, -0.3089322413199516, -0.1250360631365189, -0.019747969983549295, -0.06674564221861579, 0.025666387488753394, -0.057768730897954014, -0.10850718773065711, -0.0879674239867395, -0.12351523987489589, 0.09560905892337072, 0.023065420414801387, 0.02508489997438569, 0.01561977826266659, 0.07137284135472025, 0.09372011611401841, 0.12690681038955975, -0.31443950401504545, -0.17389141036232036, -0.005833091099915987, -0.049361042334157404, 0.016754446908562762, -0.12369697225294878, -0.09557910966350634, -0.07196423104801121, -0.13083065033802924, 0.11075279801079975, 0.016990006201234142, 0.0484533603455306]
avr:[-0.05215028874396799, 0.03814320739217906, -0.0709798607855995, 0.05534044276106916, 0.04776613815250643, -0.0016473275283866767, -0.014156520024118907, -0.007922196922993315, -0.018929666749013162, -0.008643671558734382, -0.03541509590076488, -0.0504962227969695, -0.031052011043925486, -0.0053712449615360685, 0.03141633910135335, 0.06427098736788397, -0.06034085751698956, 0.0005843971808071059, -0.05128921675414844, 0.030808541241526967, 0.024512211909028855, 0.008278172440616698, -0.007052853686232165, -0.003261437733797932, -0.013253454239878103, 0.01089670065010834, -0.0477749275751277, -0.024231446118867846, -0.029095973156318903, 0.02722483462506458, 0.03617641174744725, 0.03782276104802972, -0.06819901328455745, 0.043231340159592596, -0.03770707279125018, 0.02988569858882809, 0.0349292930981139, -0.006380744852093914, -0.00998896845759975, -0.007298141241613682, -0.006025741683520549, -0.006431188894405782, -0.03391323075115519, -0.007203982954156415, -0.030998131350995935, 0.0025557499980696087, 0.0024993354664224923, 0.04034224388160159, -0.062284759276203375, 0.018985331724534375, -0.06465256011222748, 0.007062017436025807, 0.03923948823997168, 0.001510868080669222, -0.012574447859169707, 0.009276962348972458, -0.00212879904925574, 0.012630935582915165, -0.03531811554998182, -0.006255319748047469, -0.01728698719863105, 0.023532273329222066, 0.008747917616153853, 0.01964056954941769, -0.041316821181928184, -0.0006024850054594078, -0.08845531835873255, 0.029272312139554193, 0.02132948964906116, -0.010644801525245025, -0.01147489698986386, 0.009687540496829202, -0.016426963481785597, 0.008004674597522271, -0.01844465173682892, -0.004605289656750211, 0.00078011164894703, 0.007843276663577566, -0.008365208604944985, 0.06296248736529687, -0.06787166664780671, 0.007915307018494624, -0.05772126988974537, 0.029962544988501753, 0.0051143343184109685, 0.00515718850640938, 0.004129729417523063, -0.008909424395041598, -0.003598030155140288, 0.02204435242363159, -0.015672619219548163, -0.029501698255182, 0.006550381696437663, -0.017440476907059535, 0.011888303719142363, 0.04758492334966008, -0.08209932575756716, 0.016324357762842186, -0.06559343758143671, 0.0468927140378904, 0.018016354366619854, 0.020202768692525828, -0.011208492697285584, -0.0024363678042307597, 0.014926019366386213, 0.019931121805091115, -0.07358594645635799, -0.005765594271602031, -0.00914321370612776, -0.014204810011440592, 0.01407902460633448, 0.05335897641073725, -0.0581389897063011, 0.012694248246245047, -0.05768523119343576, 0.04642471093881271, 0.01543215722079526, 0.007563595109616535, -0.031019522772536366, -0.007222334708698322, 0.004956113511340653, 0.0075019230236787965, -0.040346120519520155, -0.003183086709186257, -0.002753212238091453, -0.0003162122280779764, -0.018451644144554448, 0.06399307318991289]
alphaev56:[0.0006161039635264812, 0.043483075016631484, -0.12557656084910393, 0.023909291301618823, 0.005408725514018819, -0.009820783615867537, 0.012641487866860313, 0.009065987780374221, -0.021321904606689878, -0.010035279485469962, 0.03069369682395456, -0.041233431732705626, -0.014031235440722599, 0.020532473471080226, -0.04150553284305602, -0.0710882223556336, 0.022126152542816375, 0.02781660228412718, -0.08689895830507367, -0.0023157614933590055, -0.0009464522297123174, -0.013950078928952489, 0.013131913004287957, 0.0022218006258731297, -0.02658975387442997, -0.028575734546511883, 0.05483234630255903, -0.036291915157113976, -0.03416032418189479, 0.00286937701550584, -0.03098855800821369, -0.05099868916803718, -0.00018461476589918854, 0.04565843920265536, -0.11494947406231498, 0.006436156558188598, 0.0068841195523520905, 0.004479260701750702, 0.0035406010788685324, -0.01920910404362299, -0.01708982801371907, -0.0011025114039223106, 0.045659996196487126, -0.03596986284405829, -0.013748015012950348, -0.01110390297200992, -0.03228304582743627, -0.0552137952634124, 0.007047916288654597, 0.04931855387878443, -0.09442903642597249, 0.01749767284492652, -0.027436400116343775, -0.004510217496656041, -0.010185454891705548, -0.00505026881300231, -0.0258439445798604, 0.009966833398499188, 0.08033200768902073, -0.04301503974988567, -0.02533825786677857, -0.02214655452474351, -0.05755707789963819, -0.03804479205468941, 0.0019125710059451973, 0.07430156731511381, -0.10020095798013395, 0.011697054880801371, -0.01031622280815407, -0.01731004240758782, 0.00338574693142447, -0.014393409385474528, -0.0018750760386838973, -0.005422269829724721, 0.05646846692805989, -0.051114359211814085, -0.028697286638034343, 0.013066670510867292, -0.0735734180085401, -0.04665523518066484, 0.004169500403025283, 0.07817172676921003, -0.1206144058679472, 0.005323817555149273, 0.0031906408128414133, -0.019496409222568022, 1.88945747517118e-05, 0.004431156081137201, 0.007528884364829523, 0.009015602723299508, 0.06888156871966392, -0.05343068829832578, 0.00042098385907677466, 0.023033236684128145, -0.06909050389823497, -0.13009743696637016, 0.014961878557778365, 0.08168454833840132, -0.08362745356817271, 0.01772506314542328, -0.024299588092118768, -0.007279916468121705, -0.007155324693376698, -0.011068303614946805, -0.020129995111922188, 0.02518390084051105, 0.05494764773467344, -0.04166549189548146, -0.02464467683690878, 0.008311143087050143, -0.09941790205500456, -0.07158304440450515, 0.015020650209921509, 0.06633744355610871, -0.13376048314163122, 0.038083457734819075, -0.026946167191573844, -0.002257753188308426, -0.023170259648631526, 0.025132590747839842, 0.0047078151214680845, -0.002944852863033846, 0.06247917612745646, -0.02367299596498795, -0.0026901173084568613, -0.0024648743356579326, -0.08298894409854239, -0.10006202363565328]
arm:[0.01446857457960266, 0.02402314278973528, 0.004476344236112408, 0.002498667216854056, 0.05621262063658972, 0.0051789838275641455, -0.014352237384148092, -0.023080700779141303, -0.02046577406371427, 0.025721965838360308, -0.04538442847373055, 0.03071594812074263, -0.04532668873370226, -0.03155872701474998, -0.031472855153528025, -0.019742702675764445, -0.003685194409725932, 0.009105769230596344, 0.00490673272101096, 0.012791871740584356, 0.05891972844809685, -0.010903506848241594, -0.006641269183328765, 0.023597143294235942, -0.017193458664588105, 0.026689346971302506, -0.01375785294850949, 0.04508003846695429, -0.06819769501166359, -0.07083683186814156, -0.03531844289116669, -0.023066337109618317, 0.01711420681192528, 0.0056078383580506486, -0.005723385675772956, 0.005306864756196172, 0.055498772464395024, -0.022412504145599206, -0.009416349701798481, 0.017668873641819512, -0.00542186034660438, 0.015136067144908916, -0.048475177811317854, 0.06954983481579545, -0.08732090825378813, -0.03562288344691282, -0.02273231248746619, -0.01702129536835936, 0.037001004552682605, 0.009252868340306902, -0.01680230440997408, 0.02768549757084629, 0.0964771369879368, -0.021948831520168684, -0.0171388120994259, 0.003464085747807344, -0.039080298268664854, 0.01668817935258254, -0.015411937623144708, 0.0359187152173391, -0.07457079217451998, -0.05661189088533523, -0.043461591445413145, -0.009442595180866256, 0.027967418800836807, 0.004761576755733571, 0.01060700142526707, 0.015413135536765581, 0.08619301861673181, -0.026344719977660566, -0.029115393240451006, 0.012508027246223788, -0.03665058149698421, 0.03616492343743469, 0.0007913328925534215, 0.038400095235977795, -0.08398024562980363, -0.060333643783441575, -0.054073855566179836, -0.00949816788697235, 0.02869381261721422, -0.0028696554366270614, -0.010596651437332193, -0.0018552619729585032, 0.09177938254020787, -0.006468183479883365, 0.013608042218301763, 0.0202648690336829, -0.033277745687600134, 0.009524404580460706, -0.021005478173846955, 0.02438464145680946, -0.09118606773357861, -0.07118827701154957, -0.026065222793804473, 0.007739424255714649, 0.02676932016075786, 0.0028875380412227364, -0.02507880575938911, -0.00024098453601213292, 0.10544971415480808, -0.02613724776205895, -0.023109722090302893, 0.017892860566781472, -0.038294642888466436, 0.024999153914840425, -0.033432137981119506, 0.052098122606703094, -0.07982262309838109, -0.06477111240437357, -0.014211378554492725, 0.00651146167838511, 0.035570463256618355, 0.02963002180751123, -0.02247179192680557, 0.004171902468462055, 0.10896919338233906, -0.007016589231544147, -0.005545037240990946, -6.203743184995512e-05, -0.045304498972923386, 0.01598670069177587, -0.044982308494591075, 0.016216147428076654, -0.06509519017516789, -0.06968614668418407, -0.005823901121442908, -0.012515906526961695]
m68k:[-0.0019380116941684312, -0.015356513903946755, -0.0013770105819135643, -0.03475653864167982, 0.03465009815327966, 0.016135369603648416, -0.0009048285206884228, -0.05040554944128958, 0.011644501903652994, -0.044523212916274785, 0.007861679667732404, -0.027178519586699267, 0.022743648743785958, 0.00739895637287937, -0.011514326831948649, 5.063539929398235e-05, -0.02555738129838737, -0.014455620670047839, -0.0020458435881908336, -0.04936361134560284, 0.04779516369007427, 0.005976578464607071, -0.006488008818639777, -0.05617829548627347, 0.01584114630574088, -0.026422566918444544, 0.02545307881272227, -0.030944379533857733, 0.011611847003351439, 0.019164896322966005, -0.016928241457230993, 0.015601194950822685, -0.03924398107474572, 0.009690024680084923, -0.016058357854838265, -0.04218219529500315, 0.02191273545077525, -0.0036352272236058994, 2.3132578814292267e-05, -0.0360717587814425, -0.006365285146317009, -0.02037763173833012, 0.02566183125722411, -0.024970421636394194, -0.008027498996264924, 0.027022132227432553, 0.004230242689438978, 0.02028914627176308, -0.028918857231604634, -0.005867402767878773, -0.00934767014216381, -0.051823025516143574, 0.036567507422421146, 0.010751166758836944, 1.1835066353503195e-05, -0.04988716719724995, 0.019576122695431408, -0.01285297980238706, 0.020316503718392716, -0.03562466830425607, 0.00940347892585679, 0.016883737862365314, -0.0021375581410419493, -0.005539487290805809, -0.03447401227751759, -0.01488835617118394, -0.021001241121051745, -0.028981073029302015, 0.04611310118777105, 0.010998499085847581, 0.008600981296300497, -0.04613114541534204, 0.020400281171038124, -0.023549048198873993, 0.008853138549056205, -0.022988083764978594, 0.0120296871096749, 0.023199136464888845, -0.012113425727664096, -0.01405129312544742, -0.012222300758319185, -0.023072910733759326, -0.009250225393745669, -0.06267034289959697, 0.04327340032400035, 0.005488295561821342, -0.00011476965565112181, -0.05467897634921236, 0.010998169209289508, -0.0032275516137090306, 0.011182019738022037, 0.0065905203847838306, 0.0010884528892102418, 0.01343589063277365, 0.013790269582347591, -0.02897694379249876, -0.013975156604877918, -0.03934774302230801, -0.0016417328186488483, -0.056283316989264774, 0.019764723547347846, 0.0042476490512536255, -0.009541401836394195, -0.04946054393397726, 0.02732112559925497, 0.0012108881468206466, 0.024040026812435226, -0.06959690218917365, 0.037974734918532226, 0.03419491468534853, -0.009708885083051259, 0.011570081331474009, -0.004521823405056768, -0.02849297328423705, -0.0027298549163423252, -0.08169556975476516, 0.05982967869199766, 0.0163514918614003, -0.0025847592199640863, -0.06865330657852345, 0.024887885612688627, -0.012660004261901352, 0.021696952915107138, -0.016491576357285327, -0.003626219376169177, 0.019030924818510656, -0.011633966510638858, 0.0025520874384840865]
mips:[-0.0007953746712142887, 0.01985103022645062, 0.024431384703390104, -0.024124972339027266, -0.038755239008675536, -0.00729754027681179, -0.0051105097240370725, -0.030259110240300074, 0.0065076281109836456, 0.021100617743304562, 0.009955357595366608, -0.021373000749623325, -0.01720969589792113, -0.05067520877583729, 0.020772397109675544, -0.02287220287227541, 0.020300629012693715, 0.011349814716547472, 0.020705126795412473, -0.020017279244775473, -0.033218715294454824, 0.0006854223119541587, -0.006260795918176601, -0.008720082547256296, -0.01950267039229992, 0.020837685115500285, 0.0069417767493733734, -0.012098813867053538, -0.017742556194048943, -0.049731467473548494, 0.00033812023929989454, -0.030629932317070473, 0.0008581780594718873, -0.0065222396636419435, 0.02695627823188328, -0.009541930024814392, -0.001586807448872779, 0.013142296420290776, -0.0031209354365759417, 0.01764438732113453, 0.007677590699201746, -4.197859029585567e-05, -0.007955787717390972, -0.015260125416698299, -0.060033748285435076, -0.03784646573597371, 0.009367271867155942, -0.05138093480993246, 0.02902770818928637, 0.008550641527628472, 0.015543217143331213, -0.03358568062923372, -0.03017594810839683, -0.0017212567338220472, 0.0038361087519678955, 0.006152457744773199, 0.0193835029338598, 0.02752191490619037, -0.003123614395444827, -0.013019498461335873, -0.03882090726671233, -0.054378760970620624, 0.012932880372167423, -0.06637483034213458, 0.04034185336535857, 0.009570569366485237, 0.051216385111190386, -0.014718724654016468, -0.052952040448661704, 0.007627440672454882, -0.0005547308893565258, 0.004482386167345317, -0.018886629035964837, -0.0039381519820530396, 0.0030996072954039043, -0.03729258004473871, -0.05148783620809448, -0.00215755530380739, -0.0005482888526719238, -0.050739612240036466, 0.020953073005264958, -0.028393701443211457, 0.02788558299123332, -0.006564428138131911, -0.044409408287368266, 0.02259458752635177, -0.005574524431607416, 0.03451054323505536, -0.012374445713650371, 0.005445511887570723, 0.008640389244307723, -0.008252072421203455, -0.03081589386770561, -0.017864020813824256, -0.013482564419906216, -0.0694273812873261, 0.021010398872180026, -0.0038431725531412777, 0.03734943859120015, -0.031548192322373984, -0.03416118578051178, 0.018555527908650022, -0.0028699753010128174, 0.022889671408856272, 0.00010065356504443317, 0.004364759086475679, 0.005292949732251929, -0.030279432381428495, -0.009379610293658937, -0.04857257324587994, -0.006500666913976443, -0.06263255753853882, 0.011335114118425, -0.007240069173828195, 0.03051486664226704, 0.0032795905716194373, -0.033340506859554135, -0.009365676793520227, -0.002377081952401884, 0.02435537537366953, 0.0028438832223986786, 0.030966454470364217, 0.011932889014928363, -0.03235319866750336, -0.02460264933871808, -0.0007204021409050762, -0.019753884701189044, -0.10217752121873412]
mipsel:[0.001438719866129444, -0.04193748533781759, 0.037116742820068854, -0.015973759860022706, -0.03661626719409611, 0.016551952226453833, 0.0007228945993489227, -0.020705931323782484, -0.0031209033292431227, 0.009589579623234855, 0.034974265339867854, -0.05262043520412756, -0.01996033212764364, -0.046181913309240916, 0.007595433925929988, -0.03598891931369681, 0.016567703037491992, -0.02201150646366826, 0.004899380586740049, -0.014056591128631479, -0.04542696082198686, 0.017823059365408556, -0.006431769666765886, -0.026118951926139295, 0.014350055884038709, 0.02205468507855135, 0.0075175996143164855, -0.028643338562804443, -0.03887202053635896, -0.014683501675417166, -0.008493731754381558, -0.041632691223188356, 0.014186669955762529, -0.020130049302607363, 0.024206770895307855, -0.0013819594957766058, -0.06075694179333813, -0.005065690516013359, 0.010874402724159954, 0.0007512800060013711, 0.0042721845906075785, -0.0010748404767099559, 0.007994161256134821, -0.03699179258548808, -0.021220982481079512, -0.0071396193517174675, 0.004248804498760886, -0.07832423996873557, 0.006358455247817614, -0.04611854663466156, -0.0005432673972206533, -0.030362397054576558, -0.02313925159135159, 0.004876258393273154, 0.003307947485824806, 0.0026343029076050482, -0.0040245137977469895, 0.007267922293762521, -0.004836216355006242, -0.030988975970133482, -0.03642326159284945, 0.0034067382636757287, 0.009708631230706168, -0.026527017882000015, -0.0074146232842950905, -0.019270422516236042, -0.010418298281568709, 0.005347766650264318, -0.048443097287368266, 0.004398054159289817, -0.013905106682215462, -0.01188980428787764, 0.010691604839401818, 0.012588913376353822, 0.007198517905084533, 0.0067992802066321354, -0.009215120779662916, -0.005475830442799995, 0.008550803867806975, -0.09536355530306788, 0.02502831415258129, 0.008193111882116254, 0.010269717681382346, -6.706627253956931e-05, -0.020385478359886727, -0.018331707067765, 0.0057721682209438295, -0.008264518011515282, 0.01392446093149749, 0.012270634805948253, 0.007365586763504614, -0.04308090272705266, -0.03095480931619624, -0.03856858307996745, 0.005191485839643073, -0.09070853950401762, 0.01852692958749759, 0.005093965335055206, 0.03248499097615413, -0.01083194250621351, -0.04729634065484051, 0.0018275240296000185, 0.00018887394068772416, -0.011213485659287575, 0.017392780785059417, -0.0075168846166834315, 0.010909866280492704, -0.013079694235826172, -0.04996969833960782, -0.05631865709831847, 0.02055606186611771, -0.07572067656303244, 0.007754739709069332, -0.020154813548334448, 0.011777407020161725, 0.014218505324867433, -0.03916792121081075, 0.01824697793575178, 0.002667045626920415, -0.0044151652890402565, 0.009733024256131585, -0.002723523822682941, 0.0010273634418934347, -0.023454148596315366, -0.03843538612507622, -0.07213278375293579, 0.010264368266084048, -0.039856510118559986]
powerpc:[0.054270753723392524, -0.042968540636664034, -0.028934097189338485, 0.02717098823297228, -0.02044531449120424, 0.0017229981640944833, -0.012472440873161125, 0.0033066341608981673, -0.06307959485011524, 0.00477351727825934, 0.01008235899667916, -0.040208416458756176, -0.019864762599331356, 0.03357815220688761, -0.0008826683889270287, 0.017910376413058038, 0.019369825866666666, -0.052998530422657036, -0.05334319814596989, 0.025606259376021866, -0.0023589870906150284, -0.005619764369192473, -0.0013432580739961158, -0.003519116068330915, -0.016315744110486398, 0.007949300262615517, 0.022189890615066366, -0.06788171108872, -0.007377774143694319, 0.004764174435134553, 0.015547667970473824, 0.03995610069540718, 0.029959950300092065, -0.053085810602415906, -0.04462522912823238, 0.027499825234637152, 0.005846965983477879, -0.012021765074750822, -0.01227084135845579, 0.005780188713126919, -0.04129185876335747, 0.014536814387874583, 0.009060633332117802, -0.039932960718224525, -0.0164026363493506, 0.021760647888287046, 0.0030893609241686975, 0.02501182218948724, 0.006410591620725244, -0.06522483951035135, -0.03348157373838553, 0.04525157203362911, -0.009096882124027482, 0.0007116687408590096, -0.00042458673604757273, -0.002420903746710925, -0.03774563658190346, -0.015249475953840541, 0.019727506140252225, -0.052980713073312216, -0.010759893848571601, 0.03125221982937179, 0.02334359565774385, 0.024736706118348745, 0.013907460604338862, -0.03375074719636788, -0.001598979333561734, 0.011347815772770983, -0.015913030442358762, 0.012112143116832716, -0.007148070013889712, -0.020749164050580332, -0.056071134171728265, -0.005726613635668512, 0.007985314090757896, -0.04831893110332757, 0.01936984622320893, 0.02257600125805927, -0.010834481010470255, 0.035897105075921476, 0.01456621285221477, -0.06732195420729466, -0.008720768919625532, 0.04655876471486684, -0.03835236576217933, -0.011634909733723754, -0.009079069965159222, 0.017831347433274525, -0.05307355533780602, 0.002443815913473516, 0.034012975728880256, -0.05140047237583017, 0.023118696579658767, 0.014901660041184116, 0.014272403790570981, -0.004428225845887524, 0.014657232048679249, -0.09890921525229907, 0.00700748514708239, 0.014170101247726156, -0.002907394341645209, 0.0054780347301011815, 0.006756363524612532, 0.023545770787927807, -0.04946271981447241, -0.02246550284667172, 0.0364423017306718, -0.05097636200179371, 0.02099239693762667, 0.018096357286525852, 0.01761116572529619, -0.014944512769124202, 0.007662885244807668, -0.07992629426969695, 0.009088687773361307, -0.010803930351319069, -0.00923014534881397, 0.00537858698662473, -0.01202488835899137, 0.01160056848535806, -0.0330305037606047, 0.02106489782098253, 0.016765206680610836, -0.08887383381033304, 0.03999302637150111, 0.024662525222538114, 0.03485807716873107, -0.013731018335261158]
s390:[0.03579512233480029, 0.02389653877610137, -0.00993748999888447, 0.05696844195795305, -0.008997771509852566, -0.03825751804220969, -0.0003233968927479431, 0.019793631332361616, -0.026829940235699935, -0.06682113793079542, -0.01770813360824251, 0.04885395666227303, -0.016171372308782937, 0.03550491855789595, -0.019106517249321633, -0.08180426020802796, 0.02243118906423009, 0.047271622302480686, 0.0357986602816181, 0.013051242206955287, -0.014964999159802272, -0.006627051027545258, -0.0003457293228483858, -0.006677471537364348, -0.0185537890711995, -0.045591628431027896, -0.008375441427746863, 0.040966066363447524, -0.016970958128550578, 0.009104600864524455, -0.007959062600022847, -0.1065804028095606, 0.042450406001988954, -0.0035908782734507473, 0.05431349971397999, 0.05242161613773448, 0.00010361146804993293, -0.03036580550509114, -0.005709125611701623, -0.002123644280238318, -0.009803717704153033, -0.04008041430839832, -0.03466855155134855, 0.023748655399305287, -0.016873298140505717, 0.0012617015570138299, 0.006846077659636366, -0.10021285750183842, 0.05391573341788761, 0.0035254013372839504, 0.008938287470553826, 0.07219441366872695, -0.02947750287382582, -0.007976823348465738, -0.011775280665664445, 0.015536168523258693, -0.04299876938030082, -0.031225217418277988, -0.024269385460004785, 0.02777088260035488, -0.019287643358821938, 0.01668081808100251, 0.011703878771979275, -0.10567691402261399, 0.009890615593393378, -0.004510511926956445, 0.03488807302440118, 0.05216440640086244, -0.02738594298051804, 0.0017261184455922276, -0.008182986479204126, 0.010261386101450092, -0.03394209742436616, -0.06299679949344815, -0.038810630065340974, 0.03161031298099257, -0.03386617354442708, 0.028776843007338907, 0.0309998145900824, -0.05361588393369187, 0.037601142688174695, -0.09593881317881502, 0.029417581343906287, 0.06749760402867515, 0.006250939255583537, -0.003917995891699705, -0.007681190702863172, 0.02763375175393416, -0.03958513902270174, -0.06304586860567071, -0.0478900660995214, 0.02189158440768572, -0.021665284060199682, 0.04656615380473771, 0.028341404988748427, -0.04786924979481902, 0.029492869680495016, -0.06809140245754408, -0.006476343136766534, 0.07674917801545855, 0.007107216819553343, -0.02417402206434456, -0.0005834588984003354, 0.0013072529988822107, -0.016859881393291073, -0.0651645201532432, -0.022020146860918365, 0.04248694123492785, -0.02331449833643793, 0.04293298766055201, 0.01294992100476061, -0.05082726332308842, 0.040523427767768294, -0.026178107928342385, -0.03598713350347384, 0.0847755991307053, -0.05323963017688661, -0.014384218494047151, 0.004120055271296837, 0.009195006662495217, -0.01837759262329185, -0.046517890044552195, -0.053782145395729376, 0.08149780959540483, -0.043270544576972776, 0.06632439101544907, -0.01354862374484198, -0.044178655420188145]
sh4:[-0.029149008663182225, 0.03912851495615878, -0.0070714312345576584, 0.03828480781539112, -0.014401432677364651, 0.006491341964763191, -0.0438156229353161, 0.01808017566816315, 0.02259497654458506, 0.0021274973496141817, -0.036742613245267716, -0.008247021463522327, 0.07363113766504634, -0.03974068167450906, -0.02205007305436629, -0.013755521183042756, -0.029000852730750596, 0.051240909069267, -0.043059556910130206, 0.05825585798492537, -0.0283168135557013, 0.003647944547645477, -0.020571866705266884, 0.044373022378699015, 0.004186554436993103, 0.001964588688080118, -0.020306974792631723, -0.0017829744051939404, 0.047331041206563174, -0.025669284693197143, -0.044034564731078654, -0.012914577905372369, -0.04289145671881788, 0.01257944215024374, -0.05550053304687164, 0.031326467113965674, 0.008299403804858432, 0.006293274706911976, -0.014071797992626535, 0.03026547995296392, 0.02694255399388146, 0.005813025293892521, -0.027609810209532383, -0.032291888284913375, 0.0591828381581711, 0.00986417697119646, -0.03543113653223553, 0.0032901746459117593, -0.0720232125445759, 0.04154778824052114, -0.043078297921985406, 0.02337459261011569, -0.012160961126848861, 0.003266279454789634, -0.004332505117155026, 0.03738117749382328, 0.014907821170178298, 0.007499321904283521, -0.017100999293000182, -0.01677161366262348, 0.061037801750911995, -0.0059679305370445275, -0.03485200408174712, 0.0031887319310755714, -0.06517804077856003, 0.006642405315110048, -0.023648393696600267, 0.031535172484497505, 0.016984184946514075, -0.005173506855218352, -0.02301122433073066, 0.01870261347354554, 0.004772009556431284, 0.0031084788134525376, -0.004676111419711143, 0.003816250690431334, 0.05594123659166608, -0.02119012259202819, -0.02657999438767064, 0.013605601650544828, -0.036142570591273515, 0.019055053415212804, -0.024548574240297816, 0.03261552150047008, 0.008035593162439897, -0.004064960967223856, -0.00364977612937824, 0.009814562222722055, -0.017143375750850617, -0.0013871838515855967, -0.0009279512543835172, -0.007731975645373075, 0.029629656466743086, 0.010220663513667464, -0.020906791732457086, -0.0072117575773346385, -0.04850593257680821, 0.011762721611953348, -0.027497298207865943, 0.04080423347725533, 0.0014477068588597528, -0.015312969231187334, -0.00876904487638325, 0.020547086677209166, 0.009606935491759372, 0.017275586098844758, -0.018110058265041945, 0.028576623135206272, 0.07178557170606718, -0.0019147074132377971, -0.04135666423710062, -0.05492135684103671, -0.04788173175135536, 0.0109837288474483, -0.049983206996253464, 0.043635565989509885, 0.006158176637647905, 0.005802741025848556, 0.008721145686536416, 0.03829421323525957, 0.012807646256011648, -0.010150753977925295, -0.018375674652150346, -0.006525553319833327, 0.06669642153772791, -0.02892281680159784, -0.024897759360568136, -0.020081343978459298]
sparc:[0.019581148065579153, -0.009121615982755939, -0.015086254900430104, -0.08101888649493623, -0.01000872678856981, -0.01029493623697454, -0.0010772240305818432, -0.0012291233656117318, -0.015386632670915907, -0.03123586861747055, -0.034594455290299544, -0.06108145470676168, 0.05030142867588344, -0.048019798398138, 0.02790437866525358, -0.056284624522479045, 0.04788466359040107, 0.0034558907516151075, -0.016424656230334823, -0.10994016681785304, -0.009552237918071664, 0.005623242686458086, 0.004602223344948171, -0.013859388042407248, -0.014604122369859994, -0.03671950513618868, -0.04812614856610525, -0.04216628275347603, 0.04137278260951011, -0.02448673159549015, 0.013151039950989844, -0.07851616720422944, 0.006382248671141208, -0.006349927640397186, -0.00672737693732756, -0.08599140118037883, -0.02265064196611725, 0.017053101650751367, -0.00619168420134595, 0.020534210150717457, -0.02400979691255945, -0.0570751995719353, -0.03448731871130139, -0.03653784247518892, 0.03971499210413274, 0.011203451065584263, 0.026330213453846774, -0.11796578544560772, -0.006606471280660029, -0.005221641536384472, -0.019562954614122427, -0.08825132090024211, -0.026615326758122934, -0.007844685509337522, 0.003293263553028183, 0.002792070836057251, -0.008249310159341376, -0.059966685334698074, -0.009043260689800778, -0.052773818252210336, 0.03011736341850453, -0.0034867174045287667, 0.027844250819437987, -0.05470204914802885, 0.010333352363954192, -0.02147717423541518, -0.024977532658060474, -0.12077665826387317, -0.019431571041642656, 0.013401980539256687, -0.005385376823192892, 0.006532737528699747, 0.02407876781225967, -0.043056358822760016, -0.027726496665460627, -0.03073215531289865, 0.03405289477253543, 0.010013580512097166, 0.009836973214552857, -0.09274058157684353, 0.012647863485788956, 0.002707296624849845, -0.031072393046406833, -0.09920236654509537, -0.05749777482788072, -0.012440589928952346, 0.00017629841433175366, 0.043121936058183374, 0.009973041978292336, -0.0549868224014309, -0.035351230574755095, -0.064888368574957, 0.05980961768415254, -0.023263499124268432, 0.015776575036999942, -0.04289979779861792, 0.0361557430851121, -0.04348367698230076, -0.03227226531484134, -0.13580251059587028, -0.014254713833371712, -0.006407695934660515, 0.007831513776159588, 0.008876492939295889, 0.01482937855656759, -0.06886435749260902, 0.008675455454458358, -0.06043101844659834, 0.053484335062230305, -0.01826270258542073, 0.0208167850542941, -0.04772198076100681, 0.030082405445311135, -0.025792012105961916, 0.0042492204448708005, -0.14911075179825942, 0.0011929084128378124, -0.021814429933291798, 0.003632688308333729, 0.029054111936605845, 0.020648964669237446, -0.07384979160828252, -0.029018529300916113, -0.11753526086917361, 0.07970764998642951, -0.027726017770798413, 0.032789238943457706, -0.03284340781132855]
x86_64:[-0.13399016394849997, 0.024519024441554956, 0.017495242670937827, -0.004778982990330113, -0.02909420534680349, 0.012625792536270405, 0.007715918261915868, -0.017309768879131462, -0.07959185793705101, -0.016407601959635303, 0.016780209035801345, 0.02005548991973177, 0.012041298964406512, 0.026437601270102584, 0.005460787057182092, -0.028270292459435114, -0.11023370982539939, 0.03932385496263326, -6.991792877880129e-05, -0.024883797273231954, -0.008135999248865973, -0.0019343685928410513, -0.011510723804122356, 0.002290158426110587, -0.09535865492980161, -0.012423607943640133, 0.007050298274804259, 0.00506084649641313, 0.030768131913220254, 0.05202045941838588, 0.004839761705110563, -0.04213559272782324, -0.14359465560806556, 0.04975198042135203, -0.00381657410784697, 0.012742550226373777, -0.013153377320388786, 0.00203362991829631, 0.009830261073527826, 0.004459743341946797, -0.09125271775780155, -0.0007691240864604321, -0.00758413895752983, 0.04308363044120655, 0.008682265326455852, 0.007878876420192254, -0.0079107824563624, -0.036240950840129404, -0.14476623997337962, 0.04582336257132493, 0.004166228034872266, -0.006676757814651907, -0.024518519778885896, -0.001691848441109498, 0.013226516454230338, -0.030101432242728002, -0.032161575453976736, -0.004997363694947667, -0.029170174016006415, 0.03879829089733333, -0.007227858438385648, 0.019716587162318833, 0.007197041225959004, -0.013853568179623766, -0.16757797340202552, 0.07880443434550337, -0.006807484413151697, 0.018080378132823413, 0.005794766393644058, -0.00893590407628916, 1.3416744574853997e-05, -0.011249544888402152, -0.06322362374871233, -0.005160121628344944, -0.015933924226845014, 0.011668300302857358, 0.0007726182769649271, 0.00043069083389573915, 0.03703777472612407, -0.03855313526615463, -0.12986755837737557, 0.07513430093207644, -0.0030497211146306505, 0.025770144707381117, -0.04244161494858344, 0.017273785778890962, -0.0015008157607866108, -0.02951802344153185, -0.09280094381731284, -0.014590202369333253, -0.01787022676792308, 0.056676442080197995, -0.00805954128547667, 0.02773955436866124, 0.01629317663961852, -0.044516388752700364, -0.1573257255864618, 0.08572139998593958, -0.00025304189680759153, 0.005683843619513047, -0.016545811563262864, 0.010435429852725766, 0.0027163852065619047, -0.047311484247845814, -0.1153266234304123, 0.01761974516182963, -0.015058977337690597, 0.05398755961193891, 0.013636986840964614, 0.001976651422852626, 0.02564856431989823, -0.030602264000047365, -0.15145646969626958, 0.05439721739458878, 0.02860487501033252, -0.011055710208518197, -0.012481382102651163, -0.00014432672294026572, -0.0025352568011606804, -0.0402983788981248, -0.10246730154578385, -0.013190951942200381, 0.0016297963764197526, 0.06454185756778247, 0.014082235742862577, 0.006051488380148356, 0.02939909399829892, -0.031653905759330594]
xtensa:[0.015577806129938709, 0.03474872870331671, 0.03285506285767848, 0.006308480515056349, -0.11856599445516434, -0.0238098538808699, 0.007297715490856781, -0.012169166290339492, 0.018341564936152986, -0.011755349575279685, -0.03903260491176338, -0.008519878458012378, -0.04552034704779689, 0.03204011590829624, 0.005257950112377444, 0.0145287700191918, 0.032463158452259944, 0.03284300290667526, 0.022115865016555623, 0.029724147017294325, -0.08237773322561524, -0.02657253255339609, 0.0018359596215702116, -0.005200711043085047, 0.018310717662428366, -0.03094725031667174, -0.0422487664106407, -0.036135137795097465, -0.04241844553026693, 0.013688217343134352, 0.020163757287105004, 0.0032152296223009517, 0.010854543919911646, 0.03824108578283453, 0.027883364745823532, -0.002188718489236626, -0.05712409285884015, -0.046151618074847724, 0.0003083117012088917, -0.00682952252251331, 0.002915323931492523, -0.02054451363273728, -0.01649579842780362, -0.028225114001234605, -0.012225142196378058, 0.009701105084704542, -0.0013591378466434848, 0.008938472781814942, 0.0037896128099270143, 0.046877831013513054, 0.015163005597393964, 0.0029090242857787883, -0.0705881818603539, -0.03582948986531747, -0.015077849426363183, -0.019810418502279742, 0.0032345992044140555, -0.018891785610514647, -0.027693520537505418, -0.022855956931464343, -0.02636830764650501, 0.04788395895635849, 0.013006808901506435, 0.011659758363759314, 0.0030456007539134424, 0.04367255016247233, 0.027232046622948838, 0.00816769621462489, -0.10732314867968984, -0.05743306753045577, 0.008400983452072078, -0.017737022023673353, 0.009920928130661862, -0.021103280915896784, -0.004829901876222627, -0.009873647148426043, -0.020323352137555744, 0.02074181550204648, 0.0002961114722376551, 0.025622553416253867, 0.007169579043648361, 0.01965897971227348, 0.03330654745451782, 0.02604221736020209, -0.0965751457907672, -0.023720762807116907, -0.003438952525408414, -0.009796175588900155, 0.004287550574102956, -0.02490936923918409, -0.03568943769183256, -0.050895420753092266, -0.034725678225983964, 0.04965101186478742, 0.018954142994950893, 0.02776680740549435, 0.030626999960011766, 0.04032734903129364, 0.032570430402399486, 0.045111681647176154, -0.08090027612026184, -0.05852297545762189, 0.00355352020062476, -0.018210185238299877, 0.003636188556297445, -0.05637502139245869, -0.050584081784783845, -0.028611270287356893, -0.02817808090265434, 0.03291917316197119, 0.010343880008191416, 0.02957518347365093, 0.010375036047082594, 0.014111253812195352, 0.04122382774521218, 0.048308707931511624, -0.07830030410796482, -0.05550630631297119, -0.022114698580944052, 0.003207195097999892, 0.017336843147412715, -0.031089266055611752, -0.029843898270504172, 0.0017149707040937981, -0.022841104100886484, 0.0066095097930678895, 0.0012130884607585996, 0.0038980594575930105]
avr:[-0.05214746342655528, 0.03812560364645742, -0.07099892300951637, 0.05536614535394933, 0.04772168712961766, -0.0016714511933533672, -0.014151675015566379, -0.00794902816126871, -0.018935906338567274, -0.008634134745613715, -0.03540210997749038, -0.05053923886762234, -0.031068886884024403, -0.005357205859923436, 0.031399672073397215, 0.06425615810349662, -0.06030592870522717, 0.000557559705944246, -0.051268970082654144, 0.030821754873659166, 0.024468972887376088, 0.008331488273147348, -0.007050431101082454, -0.0032361288051732094, -0.013240526331999064, 0.010889126483677338, -0.04775547130162001, -0.02423887490155883, -0.02906446241299348, 0.02726836278777575, 0.03618623038844276, 0.03784918710873504, -0.0681823099667462, 0.04321731947197541, -0.037712474713638186, 0.029860709699611878, 0.03492310469200297, -0.006343902938921049, -0.009970516636738494, -0.007323334644050065, -0.006008144510450316, -0.006454322594914592, -0.03395095883419139, -0.0072053343606842835, -0.031032353405086546, 0.0026162062287236254, 0.002481474102915357, 0.0403399976431274, -0.06226853072542931, 0.019002916586621593, -0.06468345325914543, 0.007089173261521308, 0.03928175203329403, 0.001488534754520752, -0.01255803813710808, 0.009282629543556027, -0.0021187344838400094, 0.012685216752588378, -0.03531053812363951, -0.006268576372384948, -0.017297589190951722, 0.023561787047865823, 0.008705750547257519, 0.019619686863060606, -0.04131912319516244, -0.0006228076172012848, -0.08843554316414462, 0.029277560573987928, 0.02132105199475114, -0.010610288468916224, -0.011501060076743905, 0.009726440559268013, -0.016417701347320856, 0.007994044132415414, -0.018427120652078143, -0.004626155909831829, 0.0007224162434975996, 0.00786903826140951, -0.008342807241509355, 0.06297646686294786, -0.06789640358247362, 0.007964344782630129, -0.05771363108401467, 0.02991170810550679, 0.005105778234927915, 0.005166280174369481, 0.004203054491899981, -0.008902946264658509, -0.0035702534356941277, 0.022059538028853257, -0.015646942748988188, -0.02951985042876121, 0.006590713165111217, -0.01739711508683803, 0.011921784905298213, 0.0476241977117581, -0.08208101535193085, 0.016330833686464468, -0.06556536449570523, 0.04691868255335638, 0.01804523467799284, 0.0202152321538343, -0.011196212265562434, -0.0024039040075724853, 0.014878231300683581, 0.0199088278063428, -0.0735785581896277, -0.00579126565331711, -0.009111195734333194, -0.014121553650808959, 0.014154652369500038, 0.053374430450799294, -0.058134514196285375, 0.012694093491903166, -0.057753492278160436, 0.04644551276875012, 0.015444201678280046, 0.007577672074515403, -0.030998921867244532, -0.007196136805715026, 0.0049544488178043305, 0.007496517123083556, -0.04033397175533135, -0.0032333683662499487, -0.002798815027173826, -0.0003338406489158553, -0.01841903050854737, 0.06397853448729252]
alphaev56:[0.0005900622751872643, 0.0434316921030024, -0.12557148126834192, 0.02390596327487294, 0.005417637096839951, -0.009833319533579743, 0.012659238185365395, 0.009081378750571375, -0.021341403590114105, -0.01007041902080015, 0.030690901697676035, -0.04123174183678805, -0.014056760135561936, 0.020529332621701504, -0.0415343355072903, -0.07108080515252796, 0.022101331006363058, 0.027839072187006292, -0.08686246272101793, -0.002308465819595515, -0.0009466709030395827, -0.013929007050311365, 0.013132544761252057, 0.0022496631857995904, -0.026566869081800018, -0.028595158998882646, 0.05486304237601929, -0.03627715693249628, -0.03419906271964207, 0.0028749662962367813, -0.031001206456751803, -0.05099476172571947, -0.0002103890016516518, 0.04564079127605692, -0.11498832728713287, 0.006449893445520759, 0.006875084114198308, 0.004499358037158396, 0.003519161095941334, -0.019247543144504706, -0.017075998825901526, -0.0011413572261779472, 0.04562576013266089, -0.03597950454931172, -0.013739343072414404, -0.011136506968252679, -0.03226077641417781, -0.055206304516166406, 0.007035577854782979, 0.04930841436425775, -0.09442672256656455, 0.01752530851359231, -0.027451532242992464, -0.004512080848656835, -0.010144797357804517, -0.005028425195344924, -0.02584514963552648, 0.009960270397299437, 0.08032308001570954, -0.04303243873343392, -0.025337854152373728, -0.022130623127554653, -0.05756676738474329, -0.038060844094961147, 0.0019218252331206786, 0.07429037219698689, -0.10018212587357, 0.011660190929497185, -0.010312014272880905, -0.0173356315554063, 0.0033998950905643577, -0.014395159684136311, -0.0018990870995825582, -0.005468485557258299, 0.05650033690138396, -0.05109953107086614, -0.028695459885582236, 0.013038230671010193, -0.07358846022845768, -0.04669514749067449, 0.004131643397608575, 0.07815754305967146, -0.12058394373544215, 0.005353860445684497, 0.0031918538878337537, -0.019509100632802027, 8.088263824344864e-07, 0.004442727152530506, 0.007546492266957919, 0.009024046758753538, 0.06894234408881421, -0.053429921991411965, 0.0004261545944864821, 0.023032956695401608, -0.06910621532395918, -0.13010978263916204, 0.014998121062123542, 0.08170707666455104, -0.08362273170236134, 0.017720614673148418, -0.024280739386102666, -0.007263625002815895, -0.007160955393889375, -0.011094007980221294, -0.02013033249654056, 0.02519472894594808, 0.05492140314808308, -0.041657695585960386, -0.024654477804631474, 0.008272559574601789, -0.09943045309360157, -0.07155903626881095, 0.015008503481596236, 0.06635963552596091, -0.13377381412911377, 0.03809085976905446, -0.02693298857542562, -0.0022687124900064035, -0.023147788378124146, 0.025170401625543102, 0.004728930361005047, -0.0029726010101820866, 0.06243408777427165, -0.023689677608582097, -0.002689473345180173, -0.0024681809235810315, -0.08297341988125145, -0.10003307479037818]
arm:[0.014483068727278465, 0.024029251170823218, 0.004472712461359945, 0.0025290613117132164, 0.056222353427079735, 0.0051489949944757115, -0.014385436762557616, -0.023083396624891457, -0.020454711781702804, 0.025736918410990257, -0.04540146282434761, 0.03070549155161794, -0.045298867621673074, -0.031559775143462566, -0.03149585915343836, -0.019776852573117995, -0.0036792952701074667, 0.009117804874190436, 0.004922264530305171, 0.012797662235402029, 0.05894651479966547, -0.010895525711241446, -0.006643599043525855, 0.02358566909038066, -0.017205729738378917, 0.026679178633760833, -0.013712101851423698, 0.04508116016381998, -0.06817762646962529, -0.0708341254694644, -0.035310300622667164, -0.023056281007416246, 0.017129386921880967, 0.00563692752825706, -0.005716205821969088, 0.005291818062798879, 0.055486983707206936, -0.022430924301476342, -0.00941173110470975, 0.017692092982519, -0.005403661324434597, 0.015131769959548095, -0.04848793676667682, 0.06954374424507849, -0.08734446163845842, -0.03561674998800591, -0.022694530824755775, -0.01700103941153004, 0.03701047828256985, 0.009237266891033368, -0.0168002020652096, 0.027649955174337607, 0.09648236998847763, -0.02195208455676295, -0.017140258789141997, 0.00347853692439746, -0.039104776985264135, 0.0166925442417136, -0.01541655754193604, 0.03593435503222483, -0.07458023376837625, -0.05661424215809996, -0.04343479393087343, -0.009417050684397986, 0.02797670323820522, 0.004772808532325954, 0.010638110073513467, 0.015391966319799177, 0.08621698390601037, -0.026361311324244203, -0.029144869275288605, 0.012511735728741086, -0.03666053219818762, 0.03616800097693527, 0.0007959623219622854, 0.03840476698290908, -0.08397298487432114, -0.06032228902399584, -0.05407371261782339, -0.009516732630799258, 0.02870526989225112, -0.0028777250605102403, -0.010599326953143287, -0.0018530122679068011, 0.09178957476498285, -0.006444631397743687, 0.013593239739574898, 0.020266889074646122, -0.03329994811384105, 0.00952449906976149, -0.02099303367797422, 0.024383717553464627, -0.0911955588618347, -0.07115486299729559, -0.026050221523294784, 0.007733451787995945, 0.026780319251074138, 0.002878096171153261, -0.02508341894256767, -0.0002624929954633644, 0.1054493113097723, -0.026161111821846134, -0.023125575975131634, 0.017890684372771755, -0.038300357077148114, 0.024999312640493147, -0.03343992758851476, 0.0520931235433901, -0.0798465228052709, -0.06479078871776671, -0.014218898557099334, 0.006506726098474747, 0.035537930497022724, 0.02962276125170988, -0.022480581208992906, 0.004179159528557667, 0.10898565241545942, -0.007038904749224639, -0.0055207076777280375, -5.760044348547449e-05, -0.04530947799605936, 0.01600527757394367, -0.044985090027154555, 0.016210761573904244, -0.06506200134196653, -0.0697235151076805, -0.005855899672466718, -0.01255039474937859]
m68k:[-0.0019657597755943688, -0.015409317821771339, -0.0014015294652090738, -0.034753875934001054, 0.03466866065236905, 0.01615479890043809, -0.0008775441448169175, -0.0504038070913872, 0.011714721077679329, -0.04457420259344532, 0.007905513829747444, -0.02711799009660003, 0.022731308459328706, 0.007417290906157859, -0.011466900313221963, 6.643089667443739e-05, -0.025561710384069996, -0.014467119783620504, -0.0020652369569110116, -0.04932296035310305, 0.04780903031888824, 0.0059180165917869215, -0.00643603489678464, -0.05622311595918439, 0.015836120799946472, -0.02642298591519104, 0.025407398074219392, -0.030962920440956936, 0.01163704176805344, 0.019139131156275434, -0.01694390693929796, 0.015598485787971466, -0.039254079065505106, 0.009735517619582211, -0.016034314166712034, -0.04224739683571668, 0.021913257391717938, -0.003618824080594517, 4.865159247386494e-05, -0.03604864563692049, -0.0063513662065360615, -0.020405666072552096, 0.02568376435393199, -0.02501993770579123, -0.008065726831353025, 0.027048395096432837, 0.004197549287307666, 0.020306580203034007, -0.02891850782057578, -0.005864810324041897, -0.009393318768834856, -0.051830815557253766, 0.03660172912364889, 0.010761385992333146, 3.0545461184796874e-06, -0.0498945977937758, 0.019539106564932286, -0.01284197611837393, 0.020274335610648387, -0.035652596829419826, 0.009372395103390756, 0.01688293777725432, -0.0021487096494409367, -0.005540558863268427, -0.03447502658789129, -0.014859027732242203, -0.02103011256185044, -0.028961060276515647, 0.04612859230107467, 0.010995735217999842, 0.008588426782733355, -0.04612025045705174, 0.020369135946969975, -0.023583339104238838, 0.008808271282425577, -0.02297010293556773, 0.012050359219267953, 0.02323465663199882, -0.012130869573470648, -0.014093298251221928, -0.012178212200007532, -0.023067738740399486, -0.009293926736898652, -0.06266567646808174, 0.043256807736061546, 0.00549312921609621, -8.158901105553493e-05, -0.05468897789007976, 0.010972052027499228, -0.0032507594721867417, 0.011174408603576245, 0.006584711124203559, 0.0010974831197712448, 0.013471504067824294, 0.013742486540385453, -0.0290167869012947, -0.013968658440399071, -0.039381520727484985, -0.00167696042727447, -0.056256675102790234, 0.019758020125678028, 0.004180437721056613, -0.009524109284454999, -0.04947553333434916, 0.02733898409969976, 0.0011676233232930113, 0.024093577761422187, -0.06966946377522391, 0.0379756731347076, 0.03419641150897457, -0.009712834906839173, 0.01156793956902919, -0.004505622609272669, -0.028491381807658447, -0.002721711124711052, -0.08172268282136966, 0.0598286701661692, 0.01641113411075035, -0.0026225455740911162, -0.06864045774274202, 0.024857555951492662, -0.012626904787836828, 0.02172649857642659, -0.016503623512842232, -0.0036058565477126436, 0.01903342826483242, -0.011603959834051977, 0.0025383026134803374]
mips:[-0.0007451742161971822, 0.01985166420675317, 0.024469567211630995, -0.024144408354402597, -0.03870971826676414, -0.007226749580119228, -0.005059062316550454, -0.030313454108010254, 0.0065363408491044975, 0.021093929263266333, 0.010028694009707927, -0.021354872581532545, -0.017256969056411157, -0.050640729801154645, 0.0208514746157336, -0.0228770054105771, 0.020337043918856348, 0.011401928139318345, 0.02071852063855393, -0.01997559205940482, -0.03320660876238984, 0.0006966223977044122, -0.006177764694182115, -0.008723279803753557, -0.0194534559470418, 0.020865366880830863, 0.006975028578566582, -0.012122260336541698, -0.01773844963330366, -0.049735376252265415, 0.0002669026410175167, -0.030636717487936387, 0.0008510813098040434, -0.006534219705511179, 0.0269452774254081, -0.009525613378476754, -0.001564087712250515, 0.013107474789183827, -0.0031077534832901015, 0.01765010645470709, 0.007594176695920741, -7.952515960229665e-05, -0.007937118686859302, -0.01525622333572622, -0.06002037291877345, -0.03782810114149117, 0.009379882432408174, -0.05137759286858834, 0.029035836806198773, 0.008542809294158115, 0.015519111883590469, -0.03359599786615768, -0.030199320082656255, -0.001755857334080349, 0.003962857099636892, 0.0061856555061139285, 0.01939032870213248, 0.02753159828571934, -0.0030995351983069816, -0.01300468597640988, -0.038886645490541896, -0.054319145429610485, 0.012905835894358498, -0.06635634715091095, 0.04034113615973229, 0.009568752621468696, 0.05121775006279048, -0.0146516783588586, -0.053005113369691735, 0.007641307734881145, -0.0004837466619457862, 0.004454965669186132, -0.018875274859458717, -0.003965162522278804, 0.0031265318319322263, -0.03729357768695627, -0.051516541779720225, -0.002226555262710441, -0.00045453493723281624, -0.05075555416063323, 0.020918900776850356, -0.02848038325380055, 0.027916112436159646, -0.00648958033483217, -0.04439158801831213, 0.022659294227692334, -0.00552199077139252, 0.034555160946511884, -0.012285547191354062, 0.005531888000655414, 0.008652550465293271, -0.008310920823132681, -0.030846570308860212, -0.017798922049187132, -0.013444718463576321, -0.06942457273297113, 0.02102887335129626, -0.003862756606003851, 0.03730726144895338, -0.031532681366268654, -0.034129580367259583, 0.018575291274129473, -0.0028529881071092424, 0.022844503026002893, 0.00015590765540887517, 0.004359522952026895, 0.005385912615551832, -0.030237880495603924, -0.009335746241678107, -0.04860825269398108, -0.006456332193439722, -0.06265972092514947, 0.011309653727391468, -0.007203573605838378, 0.03048503623779612, 0.0032356618935641987, -0.03336824163258738, -0.00933474158604608, -0.002270065792532096, 0.02433950436822889, 0.0028962707433399758, 0.031031045489086227, 0.01187900343900119, -0.032348032720801834, -0.024650283301995996, -0.0006981548297777908, -0.019698827297437244, -0.1020984257702518]
mipsel:[0.0013312975991592061, -0.0419002360260695, 0.03715010709284641, -0.015985262886524937, -0.036624730113652186, 0.016537126948805988, 0.0006559471843453915, -0.020703627747859443, -0.00313677342150401, 0.009513534411198551, 0.03494714851641918, -0.052561439104122795, -0.020018070231125406, -0.04615494539870033, 0.007584325522797377, -0.03603133457369091, 0.016543003440137757, -0.022015827003994546, 0.004878413652154768, -0.01409250744062967, -0.045468731545119385, 0.01783828451639455, -0.006400550202179761, -0.02601209343641461, 0.014313909538806282, 0.022045577859995072, 0.007492784670432422, -0.02864536180270684, -0.038854910010042515, -0.014686344021416853, -0.00848160243359591, -0.04164418838991641, 0.014244016999162385, -0.02012882942664357, 0.024145091816127884, -0.0014147311358454718, -0.06083927653714032, -0.005095445465262756, 0.010876771643137896, 0.0006811181713045768, 0.004285394166603716, -0.00108513449587471, 0.008051611041948554, -0.037015008692507616, -0.021238061349609406, -0.007162139186485516, 0.004166876813024019, -0.07828127880256128, 0.006413921224956157, -0.04611727646298406, -0.0005378489259034449, -0.0303421979727095, -0.02317610171140401, 0.00480197689550599, 0.003258828912655639, 0.0026284158495798273, -0.003994206121140881, 0.007282268837300778, -0.004840696586123481, -0.030994890034011714, -0.03641726453810552, 0.0034078249355582965, 0.009635344008485964, -0.026578244358766025, -0.0074112126974053985, -0.019263726343439716, -0.010421814929929054, 0.0053700789386120305, -0.048402290705440276, 0.00432369260033336, -0.01390558930791288, -0.01189868562330648, 0.010704878411625715, 0.012591110110390323, 0.0071904068191938255, 0.006743338333998218, -0.009272248054902475, -0.005529223329871226, 0.008522662803889232, -0.09538816742065949, 0.025000347673433794, 0.008259209986555487, 0.010280460656231463, -5.6143685399698695e-05, -0.020423892495536274, -0.01824784853245622, 0.005775416398107168, -0.00823010161849416, 0.013961575059322842, 0.012316720529897492, 0.007331345906908291, -0.043081308330970694, -0.031017998631483683, -0.0386559745890818, 0.005252295883604997, -0.0906790756790053, 0.018490239532625997, 0.005122067840860865, 0.0325074556352352, -0.010858100444609498, -0.04728200635412092, 0.0018460007167755473, 0.00023911904891864172, -0.011247919847066024, 0.017445234620226756, -0.007492787935057134, 0.01093761149399522, -0.013084528186903099, -0.049957555201718795, -0.0562981421600814, 0.020554863644282047, -0.07575277461012354, 0.007765266442946498, -0.02017722109209439, 0.011778951107587645, 0.01414192334202976, -0.03917138865144674, 0.018236456752664453, 0.002667041589832526, -0.004338025488692829, 0.009764729342234432, -0.0027128455942717396, 0.0010773645150178957, -0.023423557657208258, -0.03837805142846187, -0.07214257214433732, 0.010328453458022678, -0.039854963023942876]
powerpc:[0.05430699694729722, -0.04297007899768364, -0.028944384760335035, 0.02715218880310651, -0.020447237446605853, 0.001756084022888817, -0.012537381580629345, 0.0032846461595841835, -0.06312606580596959, 0.004788339784754638, 0.010077504319838945, -0.04026110521085767, -0.01983267686874189, 0.03354633381790957, -0.0009160606381722322, 0.017924325686330584, 0.019277231484503794, -0.05304154853767335, -0.05332631967742671, 0.025564832079201995, -0.0023216288373339904, -0.005654180354581092, -0.0013524947169295995, -0.0035711834385734253, -0.016291070259672823, 0.007943690090439269, 0.022174833546113666, -0.06789765790909079, -0.007422128033172474, 0.004787037046203103, 0.015533059765626451, 0.039980702827855645, 0.02995471453204728, -0.05304635606616162, -0.04461885880562673, 0.027528522405757566, 0.005882394378861376, -0.012022534658957407, -0.01225686253256824, 0.005770567492344055, -0.041285124520623655, 0.014520051351864105, 0.009104226888460028, -0.0399544977381397, -0.016453507392023812, 0.021778823012477234, 0.003062370788402971, 0.025002135784713053, 0.006403011551476976, -0.06523108894886721, -0.03349432529186244, 0.045242221532762666, -0.009099640208703888, 0.0007046375498075946, -0.00048430781960747646, -0.0024258996269199418, -0.0377725047809297, -0.015238418798473244, 0.01969174239764065, -0.05296759500206127, -0.010815078253706993, 0.03126473668279073, 0.023374136254720734, 0.02471245006008876, 0.013857829592452728, -0.03378890491068134, -0.001600219150858831, 0.011309934125206204, -0.01594576212028779, 0.012068004885919881, -0.007159449784801199, -0.02076962123799303, -0.056034402997322874, -0.00574584681413907, 0.007930143428729138, -0.04830917010624037, 0.019410086718604162, 0.022585077016902416, -0.01078464121427289, 0.03592673168227924, 0.014572278186314123, -0.06728108113194814, -0.008741272358131954, 0.04649511659469964, -0.038355593249433766, -0.011651845039942835, -0.009129197664983617, 0.0178651468176821, -0.05304812094768651, 0.0024203045468314923, 0.03402935250486937, -0.051383110072637676, 0.023129277018580682, 0.014933056809444666, 0.014250892671180801, -0.004456771186862597, 0.014655131457888512, -0.09886005878258321, 0.0070328657376456695, 0.014211538722680684, -0.002919257732961939, 0.005402063358400909, 0.006762580756074278, 0.023540041986379618, -0.049467481149645214, -0.02248089941940658, 0.03646494710795211, -0.05090918434144159, 0.021031999493015787, 0.0181355061726574, 0.01760988282453964, -0.014978933827159802, 0.007717912363495393, -0.07996747131695131, 0.009126791291782642, -0.010800953769491322, -0.009199656852604779, 0.005364814152364357, -0.012074731660414076, 0.011603951705472357, -0.033044362140120465, 0.021079958853663698, 0.016737678505098465, -0.08891568069273856, 0.03998148125779083, 0.024693759140992345, 0.03485637677900956, -0.013670707326398582]
s390:[0.03577182387222325, 0.023908317545135435, -0.009929736818466156, 0.05693185844610392, -0.009012166932567458, -0.03826377928221926, -0.0002991318834506847, 0.01986934968858947, -0.026798344235254633, -0.0667944087460913, -0.017659351610764505, 0.04889420340717278, -0.016207351088285454, 0.035509967826722576, -0.01910208523338233, -0.08180409782663069, 0.02240331331146832, 0.0472842734350107, 0.03580306931583444, 0.013070274399187877, -0.01489208194154968, -0.006650178061285521, -0.0003925791310535251, -0.006662189268062574, -0.01857921576993338, -0.04562376426962827, -0.0083823085601516, 0.040917886712706936, -0.01693438694992435, 0.009090276918822986, -0.007993671188622306, -0.1066027422440595, 0.04244048379500006, -0.0035030761962878128, 0.054310304074167134, 0.052367331791347754, 6.250302016726729e-05, -0.03038641170425501, -0.005726256227531098, -0.0021977595911605043, -0.009733891006272973, -0.04002424225237627, -0.03468848143510267, 0.02376973182651708, -0.016831693251676834, 0.0012193937712335764, 0.00683668369279781, -0.100159546841804, 0.053902910576845424, 0.0035589488322705005, 0.008985675918133968, 0.07218257544962346, -0.029486256567638387, -0.008019986315047663, -0.011766338546810244, 0.01552619745574972, -0.04298313438149995, -0.031190247363140734, -0.02422915158547677, 0.027802063541255626, -0.019241594058354, 0.01664757778742966, 0.011671496175317125, -0.10564831528275315, 0.009934422339663601, -0.0045306560367327055, 0.03492188768274839, 0.05207965499640443, -0.027351901031647294, 0.0017289368578773227, -0.008194379445422846, 0.010282873603994, -0.03389748852315018, -0.06296111348448798, -0.03881068559486366, 0.03161965579159803, -0.03385817113094621, 0.028742116217281052, 0.031018449580692158, -0.053617808533259835, 0.03755926310946321, -0.09592009038464108, 0.02936417434871208, 0.06750339724857483, 0.006214608819008983, -0.0038685141675475912, -0.007664460265161445, 0.027599740779211623, -0.03952536242848797, -0.06305967356652872, -0.04787339270862261, 0.021817613531940228, -0.021650735407205243, 0.04655273835074724, 0.028308969049603595, -0.04783196285836333, 0.029470497048320634, -0.06806576175566996, -0.006495007683690471, 0.07678940730622867, 0.007158447399285089, -0.024192281013907684, -0.0005657235209442749, 0.0012937421995180111, -0.016899072524961093, -0.06511902172787853, -0.022027036516314765, 0.0424923629342196, -0.023271949483769525, 0.04294399178821607, 0.012984906947956848, -0.0508357507250648, 0.040560756215936855, -0.026149532734031943, -0.035959342510017395, 0.08477148065537599, -0.053217532878092964, -0.014432274518104537, 0.0041507593755995545, 0.009187128729295037, -0.018314090245761555, -0.04648496012672851, -0.053763740915093054, 0.08148428031832435, -0.04326555615041605, 0.06631520426141041, -0.013576053816642973, -0.04414635492983319]
sh4:[-0.029146798375827943, 0.039111119511761334, -0.007098987378643027, 0.03833970511682209, -0.014418779282394325, 0.006508984149828733, -0.043756259755093056, 0.018083019162362143, 0.02268548840198817, 0.0020768384054504732, -0.036706427782419594, -0.008239708486750165, 0.07365527479249308, -0.03977709026604091, -0.022080128422768897, -0.013766174411478213, -0.029006662330389756, 0.05124093834263818, -0.04302341271641425, 0.05828717258691278, -0.02833235077137018, 0.003618587654747382, -0.020590123969246258, 0.044373816861326375, 0.0041679693750452055, 0.0019668827855739307, -0.020297710699639194, -0.001789952050760413, 0.04738447982999946, -0.02566313508981648, -0.04402087196792394, -0.012941498175976607, -0.04290979333181073, 0.01258314634103933, -0.05551487277796263, 0.03138687958201877, 0.008359122748818169, 0.006319579995002961, -0.014018901295394164, 0.030295311083075423, 0.026987156124872336, 0.005805118260421355, -0.027625847193728726, -0.03226864294887775, 0.05917097381241887, 0.009860594483319138, -0.03541108612135841, 0.0033032197426898836, -0.07210708219019395, 0.04156295779558521, -0.04308811321844945, 0.02333953943790063, -0.012126083827968984, 0.003247118115658534, -0.0043933049093611825, 0.03736323700443925, 0.014868400935770817, 0.00746756391913903, -0.01710772869124081, -0.016770135612473168, 0.06105802856424604, -0.005968295993803937, -0.03486528466222534, 0.003200546793823222, -0.06515641885765892, 0.006641180998034319, -0.023612537824926883, 0.03149594913108883, 0.01698476159209488, -0.005199265387780107, -0.023015741731534388, 0.01868853606933861, 0.004797284759056841, 0.0031105031746430614, -0.004636520479870693, 0.0037986563470311196, 0.055898399405316226, -0.021204062101737118, -0.02663471354035859, 0.013589720785790294, -0.03616764375105677, 0.019048687927389778, -0.024540888296107902, 0.032635825036584805, 0.00805165128002447, -0.004098836872370392, -0.0036637356533716294, 0.009858883577222219, -0.017110924436215234, -0.0013788870514290575, -0.0009569335995128473, -0.0077676014076562975, 0.029655979907729953, 0.010252085665942252, -0.020926735336531922, -0.00721043565235988, -0.04847430699860188, 0.011795779560091762, -0.027524585443413158, 0.04079658087568345, 0.0014753945692527898, -0.015282946515783201, -0.00875164089760445, 0.020534305889479677, 0.009577570215073212, 0.01724103816616868, -0.018099643193963198, 0.02856461550007453, 0.0717689320973473, -0.001888222878451607, -0.041357338414770836, -0.05494361514350544, -0.04788041713617681, 0.010943611402140481, -0.04995667390573766, 0.04370528405245366, 0.006119136888481013, 0.005792929308458604, 0.008693798746007736, 0.03832776812525395, 0.012798420928658748, -0.01013701988652366, -0.018365737756582304, -0.00651734590461016, 0.06669805013770005, -0.02888763454642712, -0.024897785964442424, -0.020086503443636182]
sparc:[0.019608712305817184, -0.009139892381879787, -0.01506241536487735, -0.08103634169251347, -0.009983955408294961, -0.01029195088603144, -0.0010425646651656296, -0.0012504795130810079, -0.015416276230845221, -0.031259826700830454, -0.034578153986852614, -0.06104840688815061, 0.050319634784113366, -0.0480146386893815, 0.027890509975331372, -0.0562907036425422, 0.047905386865585806, 0.0034494151856850207, -0.016460910925435078, -0.10998129176862416, -0.009579439312044271, 0.005613148516916428, 0.004596849352857758, -0.013860710117137793, -0.014587423055458673, -0.036710094951821, -0.04815490203528261, -0.04219615851300347, 0.041369952141889536, -0.024447812690785185, 0.013140203950708208, -0.0785193805640348, 0.006379202657749843, -0.006357696765020825, -0.006710411890935176, -0.08598699867981191, -0.02266155513152969, 0.01703378795287036, -0.006138695820036983, 0.02052786439005915, -0.02398220805254657, -0.05708057902829283, -0.034487931860327656, -0.03657878938659599, 0.03967963818432674, 0.011175170422323367, 0.02635587407077628, -0.11797549977945958, -0.006607632045109533, -0.00525935952965963, -0.019566260628910703, -0.08831873566163718, -0.02666839136107223, -0.007878765177617365, 0.003284259452130699, 0.0027693398523746444, -0.00822657006789161, -0.059982250401939406, -0.009061635797534471, -0.05272779908336661, 0.030121683160606032, -0.00353702585779244, 0.027828887051594003, -0.05469653607476649, 0.010363976436164334, -0.02150653216128065, -0.024972048824279787, -0.12078965006220242, -0.01941621158147182, 0.013408502459035267, -0.005421779140988464, 0.006577485530297692, 0.02408247046689016, -0.04305660532261649, -0.02768086944296566, -0.030727225437074488, 0.03406799916452737, 0.010018304693534487, 0.009826571544542676, -0.0927149190174863, 0.012638904895747033, 0.00267627657726765, -0.0310273799169729, -0.09919581322887491, -0.057497095540151144, -0.0124530935428762, 0.00019849076549321505, 0.04314609750797168, 0.009989219744236203, -0.054990213731573145, -0.035376706748745046, -0.06492257340356195, 0.05976379949051102, -0.023238004629998307, 0.01578734120815617, -0.04290448150801923, 0.03616579701013867, -0.04353638475813428, -0.032260747049476464, -0.13582552697352757, -0.014235827328996581, -0.006408312234644619, 0.007842682395348598, 0.008918756540978573, 0.014847336632822599, -0.0688553562446184, 0.008698523721673153, -0.060417454036083354, 0.05350561579049995, -0.0182639815405224, 0.02079583902674704, -0.047729384443841005, 0.030061533034148245, -0.025789881782740255, 0.004215593661132141, -0.14914896209980122, 0.001177504095159399, -0.021844559200559985, 0.003615202044421536, 0.02900207056424078, 0.020642821412987317, -0.07384124443600978, -0.029021516156966895, -0.1175392182596106, 0.07971264426313492, -0.02768835224683934, 0.032803810418837495, -0.03290598197885391]
x86_64:[-0.13394830049881137, 0.024531958757326094, 0.01746987775005472, -0.004786735778915413, -0.02913392012095965, 0.012590692543432171, 0.007746151359520946, -0.01730061196560432, -0.07956528017412208, -0.01641595846886284, 0.016783578910834287, 0.020061520060743666, 0.012019516336570184, 0.026448714097844033, 0.005455980482772294, -0.02827465462300686, -0.11024320797556408, 0.03930853001918012, -4.8427619823200255e-05, -0.02489926981826391, -0.008170514709008219, -0.0018909776234311401, -0.011568165325505716, 0.0022804943944484722, -0.09536373926476863, -0.01241641217071074, 0.007089752539982146, 0.005069438663241976, 0.030764718659233917, 0.052013466029909076, 0.0048497700430099894, -0.04213887896434876, -0.14360351501429636, 0.049785726395104146, -0.0037650805569111336, 0.012717599487633399, -0.013162693564862138, 0.0020521577254587696, 0.009809772904160775, 0.00445921871655774, -0.09123285797023072, -0.0007491229213632312, -0.007561348596235004, 0.04311170278340805, 0.008721143790044643, 0.007865960970389232, -0.007930211871212524, -0.03624376864394103, -0.14476273955346827, 0.0458151291644649, 0.004146115740087244, -0.006635955995674215, -0.024560417035111127, -0.0017301403578402499, 0.013203500841563399, -0.030129034319530665, -0.03212507482396709, -0.004980078019928245, -0.02910450939459651, 0.0388191163249833, -0.007186906741709591, 0.01970530432014205, 0.007190846551942929, -0.013830336365942346, -0.1675768926992206, 0.07884273190235665, -0.006811625096553803, 0.01805041042317811, 0.005773284716119532, -0.008911277815399393, 7.558268036329001e-05, -0.01123513049608709, -0.06324450196252668, -0.00513289091226708, -0.015914711304550924, 0.011688016867766594, 0.0007296269401577433, 0.0004295036898653116, 0.03702943503734144, -0.038594171143611, -0.12988791957545803, 0.07513479710733123, -0.0030336124861278374, 0.025745148703221598, -0.04247313049141039, 0.017261168066962724, -0.0014695825122966434, -0.029490319148209626, -0.09278928958565322, -0.01457385895997442, -0.017869717684699794, 0.056732286844925456, -0.008057183572064936, 0.027702081223103456, 0.01628108090029511, -0.04447278597120645, -0.15730949766836758, 0.08573475963641447, -0.00024795384401807714, 0.005678516612186488, -0.016487038605849814, 0.010462086393268824, 0.0026875371091744007, -0.04728754112929311, -0.11536769457239515, 0.017624528842669362, -0.01505785515275382, 0.053956540022418, 0.013630133582279737, 0.0019982342309294403, 0.025645009450919024, -0.030640157894076064, -0.1514786761201848, 0.05444270031442635, 0.02862396350298904, -0.011084496880611043, -0.012483118476736088, -0.00016097633495061058, -0.0025166651273590473, -0.04031752596881951, -0.10249868733538106, -0.013202081151077193, 0.001619847264850602, 0.06454792239730549, 0.014093823609481086, 0.006062763324728947, 0.029422925960735008, -0.03164279199868205]
xtensa:[0.015540519128017363, 0.03480469678207857, 0.03280022534572907, 0.006316284968147111, -0.11855883471503834, -0.023774223102868128, 0.0073307900541548865, -0.01215962423673647, 0.018345482821302272, -0.011719523313715919, -0.03901822543391141, -0.008529970240058731, -0.04551126852708112, 0.03196927599950187, 0.0052869045955246195, 0.014534111508805111, 0.03241732668746724, 0.03287445596863491, 0.022113397645890823, 0.02971780220589617, -0.08238168116116101, -0.026586313444914484, 0.0018292072532948287, -0.00512507146809092, 0.01831747861657659, -0.03098090480672461, -0.04220710978461817, -0.03608527253997614, -0.04242205408462483, 0.013704826724552137, 0.020163487187962504, 0.0032701889692383604, 0.010907423005390562, 0.03824758148489316, 0.027857307556571943, -0.0021750358581069506, -0.057129782245123696, -0.04612711041339906, 0.0003140726724226163, -0.006826453175174189, 0.0028980705691888696, -0.020599670152976198, -0.016499653301360027, -0.02822433975816781, -0.012284367690299874, 0.009684392065493716, -0.0014084190697507633, 0.0089419872519322, 0.0037739611761684493, 0.04688452315066083, 0.01516466648029657, 0.0028274441243764355, -0.07054815550484082, -0.03582635139197831, -0.015084003948805188, -0.019859597635940477, 0.0032651225841594613, -0.01886818722222101, -0.027672910349467464, -0.02283656460476964, -0.026420152770884615, 0.04789290659279524, 0.01300407735193945, 0.011668472857538694, 0.003057032236150628, 0.04368069503075547, 0.02721052598603283, 0.008126515137014158, -0.10737134508740069, -0.057409452392425536, 0.008442626015359412, -0.017735391417192874, 0.009974461983047194, -0.021124227505698763, -0.004794395264322067, -0.009896445745664905, -0.02029643365250765, 0.020710315848399802, 0.0002630760064554803, 0.025646132287156058, 0.007193591126315667, 0.019730634547217806, 0.03339395341537571, 0.026053848036735768, -0.09662203799255374, -0.023725429214316248, -0.00337898783536752, -0.009808100812222184, 0.004299104590594941, -0.024932470123831135, -0.035733227489337493, -0.05088372502995578, -0.034712635589626575, 0.04967090372514087, 0.018951795316538417, 0.02777151886694741, 0.03062546930404218, 0.0403420940699336, 0.03255248139129175, 0.04511195128347229, -0.08087764457949351, -0.05850100943665133, 0.003547903050160319, -0.01819578396169456, 0.003636102747164713, -0.05636559391700995, -0.05056377460459134, -0.028586623537955436, -0.028140857817685577, 0.032930057599087396, 0.010344191994792248, 0.02964002405911582, 0.010380942360607786, 0.014067687015545048, 0.041254773975220184, 0.04829132864433252, -0.0783304833571207, -0.05552192327887734, -0.022112812779052773, 0.0032016531421586144, 0.017335222075943645, -0.03108811735854712, -0.02982664289445773, 0.0017471331472052032, -0.022861864180931873, 0.006604766413654726, 0.0011862127318068097, 0.003911569129151971]
avr:[-0.05212685422392984, 0.03814727084788577, -0.07100569769803866, 0.05536375614585575, 0.047733974964121656, -0.0016731619857960226, -0.014123828127171334, -0.007933372887158846, -0.01889605799288249, -0.00866346626825899, -0.035382963083306636, -0.05052763947085408, -0.03107362923240097, -0.0053631896262867065, 0.031410456459686424, 0.06430162679847876, -0.060324490528745264, 0.000522293570736525, -0.051283435071022676, 0.03086348399587925, 0.024519084481943197, 0.008296956703815946, -0.007037751338598124, -0.0032504770874103904, -0.013207269832891107, 0.010850744914710154, -0.04769765150146294, -0.02422907573024307, -0.029096493786161703, 0.02721819433786158, 0.036238981651262804, 0.037827435542717495, -0.06817028691964706, 0.04326652942095954, -0.037714818625199625, 0.029841973794485468, 0.034937021423631795, -0.006369096829417393, -0.010022171268943461, -0.007284169416901607, -0.006019023686577039, -0.006470021948203015, -0.03391531693385929, -0.007217390140731846, -0.03100940124423334, 0.00261157394023949, 0.0024742561552462726, 0.040359434003084164, -0.06225843021754677, 0.019017354687260193, -0.0646974000736946, 0.007097866053730919, 0.03929165618549142, 0.0014805947748068153, -0.012564899020527726, 0.009279706174227659, -0.0021272604133090096, 0.012619796124771512, -0.03529233587192162, -0.0062962630525479025, -0.017331335068131077, 0.02352304722992797, 0.008756508487839501, 0.0196078350569615, -0.04128743883534852, -0.000626368884419608, -0.08844360553037175, 0.029261105277274813, 0.02131658799331279, -0.010587339127091906, -0.011473734815673056, 0.0097443932539909, -0.016434219855242696, 0.007986922230826449, -0.018417558383931044, -0.004624938613624604, 0.0007435222224263188, 0.007868417889804148, -0.008312423208278352, 0.06299723401554759, -0.0678569529449542, 0.007940989756351264, -0.057673869014348046, 0.0299080278550286, 0.005105786256509842, 0.005222729705509846, 0.0041834387121605105, -0.008904210067684501, -0.003584011577723609, 0.02203094684458922, -0.015650035313457954, -0.029505855691988797, 0.006586408906762746, -0.01745052756950598, 0.011928729677172714, 0.04758310937944506, -0.08208965652949901, 0.01627667701691798, -0.06558951869487431, 0.046907520160465614, 0.018023455188480034, 0.020227884329408998, -0.011194251116735474, -0.00242819075550236, 0.0148816432632416, 0.019930962702655736, -0.0735897723993823, -0.005781842560780625, -0.009131363517394245, -0.01415917835645373, 0.014113282938633042, 0.05333225191200678, -0.05812584727734368, 0.012693966151719284, -0.057709426765346565, 0.046448777258856884, 0.015419540869786752, 0.007567226631729155, -0.031021884533149406, -0.007248194563959628, 0.004951051202132237, 0.007522486266146783, -0.040359987806066935, -0.003220739911721141, -0.0027616419829280497, -0.000316958289485653, -0.018408262733688657, 0.06397929715909988]
alphaev56:[0.0005979561742538806, 0.04343075798480871, -0.12556682649773496, 0.023886826612931702, 0.005411283883198382, -0.009846247883360002, 0.012651581509722768, 0.00908729213825571, -0.021334804236941247, -0.010082551446061615, 0.030673345492246634, -0.04121228358393873, -0.014014182944818617, 0.02057286575640495, -0.04151301822832937, -0.07107538533465071, 0.02208529791253539, 0.02784386193155812, -0.08688518947592563, -0.002330231936342148, -0.0009316123105483297, -0.013889462267104972, 0.013116475795961795, 0.0022347979005778442, -0.026564458288686203, -0.02859962240694514, 0.05481733157599713, -0.03626292202861609, -0.034169682913408286, 0.0028949244748006316, -0.030998027158977835, -0.05104781789679197, -0.00020903861142672683, 0.04564117106033776, -0.11493265538397751, 0.006436860303859677, 0.006889811111375769, 0.004504997519924135, 0.0035163695904448207, -0.01923287926231636, -0.017066258912411935, -0.0011315385633104272, 0.04564029628115638, -0.03599678530528195, -0.013747194751516837, -0.011118416736380168, -0.03226819524234431, -0.05521069224704723, 0.007028143914610906, 0.04929555845271161, -0.09445074451454095, 0.017541873336270043, -0.027457110262396736, -0.00453482669491878, -0.010163350023184949, -0.005050180318343662, -0.025832590807094324, 0.009967386319205494, 0.08030006707804015, -0.043043355772166836, -0.025362460469953652, -0.022153502841442553, -0.057572843800941166, -0.038057060788508144, 0.0019181982123768419, 0.07432984716933022, -0.10018619454890264, 0.011693788207072436, -0.01033693867245372, -0.017327486995152585, 0.0034253390919546456, -0.014382263702225943, -0.0019141829403238513, -0.005438400971876901, 0.056529370375703256, -0.051090482443715175, -0.02870511721894799, 0.013015571110475523, -0.07357988864804478, -0.04667892254944691, 0.004193878773241666, 0.07815168093656652, -0.12057875655740713, 0.005341738363174981, 0.00324012720887173, -0.019447916330026887, -3.9464067837208724e-05, 0.004460427120605637, 0.007518103645855612, 0.009052407711936824, 0.06889087389620067, -0.053409403802793375, 0.0004490993112945184, 0.023071222368584453, -0.06912712808506832, -0.13010530206835927, 0.01498566840249513, 0.08173348122834267, -0.08359638854872223, 0.017724480822212382, -0.024271005851696767, -0.007266208470579506, -0.007150574055426488, -0.011096185283953433, -0.02009362531623825, 0.025192061944709652, 0.0548984482450511, -0.04156702569147759, -0.02462628729542181, 0.00825256968479239, -0.09944128184197194, -0.07156908444917101, 0.015037889163932902, 0.06635870973280916, -0.13375940395127345, 0.03807866936083934, -0.02694227753333574, -0.002278655939189626, -0.023185259666223843, 0.025148524941774456, 0.004722224902302359, -0.002978629193180476, 0.06247890424740728, -0.02371604041002989, -0.002718698288691474, -0.0024780735146906234, -0.08296787440877199, -0.100029482748072]
arm:[0.014471514384322474, 0.02401102895982213, 0.004467968568254514, 0.0025083038756201935, 0.05623341888640931, 0.005152545081827744, -0.014388687581701646, -0.023068207124709195, -0.02045492218328121, 0.02570442709258478, -0.045403352695549216, 0.03073325862142702, -0.045303788635142825, -0.03154579456467537, -0.031504272284361416, -0.01975874141060262, -0.0036688713219794255, 0.009109737698751109, 0.004922487102756473, 0.012799495571472794, 0.058956859219298406, -0.010887175865701586, -0.006623736766582463, 0.023597009727091424, -0.017213905618127273, 0.026685322260789568, -0.013751104557267644, 0.04509756966551935, -0.06819812268242655, -0.07083469454536219, -0.03529387728772275, -0.023060273934636673, 0.01712840857218042, 0.005613230795967894, -0.00574673574915878, 0.005310154321689512, 0.05548969432793562, -0.02243612006745294, -0.009429906204384747, 0.017674052854453767, -0.005406713285339262, 0.015123986217256644, -0.04848389437031605, 0.0695672138153997, -0.08730772318664012, -0.0356279132315732, -0.022681789695202993, -0.017021281097122348, 0.03699643575201942, 0.009232736677452702, -0.016788195131377692, 0.027662469016150378, 0.09649171751575096, -0.02196277224577868, -0.01714961447119501, 0.0034576924028966436, -0.03911368564408813, 0.01666980462587093, -0.01543277225633516, 0.03592226023302798, -0.074599715628512, -0.05657057179314153, -0.043450912406865536, -0.00945455523190099, 0.027970025616133192, 0.004764186555174132, 0.010612764511875912, 0.01539700938734035, 0.08621377862696482, -0.026365208818770716, -0.029126502742509764, 0.01248728822800547, -0.03668085277465056, 0.03618312796610606, 0.0007814364285795773, 0.03838626415967358, -0.08396684196579152, -0.060352581386845294, -0.05407081658340103, -0.009483382793565915, 0.02866887039608141, -0.0028614782216747187, -0.010600279138208829, -0.0018628953679024132, 0.09174668569655733, -0.006473159474732051, 0.013579741940057203, 0.020264199059769134, -0.03329477698061588, 0.009506627206122813, -0.021002489605073362, 0.02440405622793091, -0.09117015372516223, -0.07119242430004327, -0.026041018726381933, 0.007760417890945668, 0.02675834331694636, 0.0028682959423264242, -0.025086994673432072, -0.00023798445376516678, 0.10544263742023999, -0.026140295370755642, -0.02310632028872142, 0.01786943072200752, -0.03830297921150223, 0.024984568184746245, -0.03343517015093043, 0.052106907937967094, -0.07982100355222342, -0.06481270244609738, -0.014213661051344358, 0.006519776610823655, 0.03554570626487574, 0.029605988266677624, -0.022482900292153784, 0.004164353705832987, 0.10897653895458942, -0.007037428151860163, -0.005549470628986864, -5.7759047226346606e-05, -0.04530478553128421, 0.015991918920457163, -0.04497678817178655, 0.016228633894322678, -0.06507949285949895, -0.06968905127263247, -0.005837915858631472, -0.012534519580974157]
m68k:[-0.0019091097987211814, -0.015385160599494099, -0.0013838654958315336, -0.03472294982185705, 0.03465829670316817, 0.016165347837361836, -0.0008804262024145086, -0.05041232154824426, 0.01167370927590619, -0.04453744230949821, 0.007831252456459697, -0.027172944553704483, 0.022734137235650573, 0.007404101726574203, -0.01150309865267625, 2.292692559052488e-05, -0.025562732524643108, -0.014428853249454662, -0.0020541048527824065, -0.04928076229697095, 0.04777970395017938, 0.005914103537345793, -0.0064824414131000666, -0.05621578256595498, 0.015857203578854746, -0.02644685326211835, 0.025431305729159928, -0.030959297998365335, 0.0116115476754254, 0.01918066978001671, -0.016941335182577805, 0.015548214589805816, -0.03925022438874092, 0.00968866743368591, -0.016023878128036406, -0.042182791321684496, 0.02188049202803586, -0.0036207863182082215, 6.576262442087878e-05, -0.03603381198818216, -0.006331771870802575, -0.020375680222404845, 0.025675286279026165, -0.025002895153016368, -0.008062735860337974, 0.027051419259847477, 0.0042131126365645205, 0.02031036483277933, -0.028945331135533867, -0.005830703562231422, -0.00935540927332856, -0.05188566707964261, 0.03657598386119666, 0.010761148543343155, 1.9355741229271633e-05, -0.04987158947055887, 0.019534181964952206, -0.01280262612329059, 0.020244516588084866, -0.035603010328644276, 0.009383315450462398, 0.016889783816150254, -0.0021430360647479284, -0.005530226034659018, -0.034461835168245636, -0.014881420050561173, -0.021004955720780934, -0.028975171501034253, 0.04612070746687694, 0.01095541026158267, 0.00862442609221781, -0.046117703515284485, 0.02042530747870769, -0.023521061930583367, 0.008850946928218013, -0.022957459503229177, 0.012034644214112338, 0.023220847241884696, -0.012145804203736767, -0.014093983225735598, -0.012173884481337148, -0.023067329762508602, -0.009271174183354294, -0.06265058671681543, 0.043230234377991394, 0.005456082136573246, -9.44927506559067e-05, -0.05472898745299334, 0.010974557030881807, -0.003276116076645367, 0.011170470890888032, 0.006604541637800553, 0.0010977157351022874, 0.01347347186242538, 0.013736153203052064, -0.028973896277754638, -0.014015717007942533, -0.039393100462559644, -0.0016559088169789424, -0.05625398010827441, 0.019777606523182834, 0.004200617709477976, -0.009530374719905829, -0.04947057032331453, 0.027431843061527194, 0.0011329418761462642, 0.024033913661917043, -0.06962901373199568, 0.0379955834892989, 0.034207274164541245, -0.009689113988133395, 0.01153770498951492, -0.004493707286932983, -0.02850982817349587, -0.002746453400716574, -0.08172743733946075, 0.05985555153165933, 0.01637525467799597, -0.0026541765330577284, -0.06865059685048162, 0.024891802074016197, -0.012638416796525173, 0.021682436875454774, -0.01650904608673783, -0.0036130506825540086, 0.01908878493250274, -0.011600679065463986, 0.0025918111775992047]
mips:[-0.0007855911280147417, 0.019817271368065898, 0.02451168002192977, -0.02418383352236452, -0.0387236242693968, -0.007265667397975765, -0.005138893509948911, -0.030253373305466447, 0.006520504326027289, 0.02106116267222376, 0.009983097977391718, -0.021461221925108475, -0.017286620477837106, -0.05066833192775127, 0.020826753510874086, -0.02288019370759588, 0.020281195129920437, 0.01132917961642779, 0.02069981246598133, -0.020065211840598302, -0.03326091106376777, 0.0006880802975314916, -0.0062969704537551964, -0.008778945995101898, -0.01950708978388104, 0.020827581583188294, 0.006929968836139855, -0.01212736123380634, -0.017778013959304485, -0.04973122727749224, 0.0003293299992097038, -0.030653850929841776, 0.0008963843841722582, -0.006493515505891429, 0.02696259799705213, -0.009598054414127376, -0.001510196217262941, 0.013119766198646033, -0.0031334395975589693, 0.01766016306879377, 0.007617257085172402, -6.127030626485004e-05, -0.007988987153098774, -0.015234236115755953, -0.06000803635076053, -0.03785625380739526, 0.009368921314899793, -0.05141760496820389, 0.029008374120242344, 0.008521979912215786, 0.015497851438955865, -0.033597322562457725, -0.030137559416227533, -0.0018132515102052902, 0.0038890133279953745, 0.0061477290359931115, 0.0193769650453981, 0.02752558306685574, -0.003082425839411739, -0.01301227739128814, -0.038797842186011615, -0.05435991264068978, 0.012891046349705578, -0.06640982135617186, 0.04039218381199472, 0.00964203993354401, 0.051180254657824324, -0.01471618133297088, -0.05295748086210348, 0.007577515631010163, -0.0005240681971153472, 0.004453340192075631, -0.018828708786499386, -0.003991905138034807, 0.0031148593577053664, -0.037377533153349136, -0.051548971558205446, -0.0022326487963193263, -0.0004986231040602923, -0.05077542517251161, 0.020960745217028873, -0.02839534369199079, 0.027929330792633048, -0.006477915649332655, -0.044397680978979774, 0.022654019421145352, -0.005533843094886674, 0.03449122459428073, -0.012334457689554901, 0.005533518766685964, 0.008630179290739805, -0.008311469591177234, -0.030844399682857123, -0.01781066496996939, -0.013436489922754893, -0.06935203814349779, 0.021023882980357043, -0.0038508679892564797, 0.03733269121261975, -0.031476853420314324, -0.03420137914630927, 0.018565047187134743, -0.0029067909752105558, 0.022914678757286967, 5.66671383231443e-05, 0.004329258507627363, 0.005313659218253976, -0.030211731061648348, -0.009330083902513477, -0.04857161362533615, -0.006493095589910578, -0.06265462642843228, 0.011311269093961294, -0.007315713624764677, 0.0304178090033127, 0.0031791040860871564, -0.03335949985295133, -0.009374505415844498, -0.002292563961425484, 0.024381046448233155, 0.002839141190959353, 0.031020527460211066, 0.011863922760569176, -0.032311161846460594, -0.02458863921094777, -0.000750856850333762, -0.01978952821613975, -0.10219344352930246]
